%YAML:1.0
---
opencv_ml_svm:
   format: 3
   svmType: C_SVC
   kernel:
      type: RBF
      gamma: 5.0624999999999998e-01
   C: 1.2500000000000000e+01
   term_criteria: { epsilon:1.1920928955078125e-07, iterations:1000 }
   var_count: 144
   class_count: 10
   class_labels: !!opencv-matrix
      rows: 10
      cols: 1
      dt: i
      data: [ 0, 1, 2, 3, 4, 5, 6, 7, 8, 9 ]
   sv_total: 1469
   support_vectors:
      - [ 6.80099070e-01, 6.80099070e-01, 6.52381964e-03, 0., 0., 0., 0.,
          0., 2.60957062e-01, 6.73491716e-01, 2.81408727e-01,
          4.73924447e-03, 5.30906999e-03, 8.04099441e-02, 1.45466458e-02,
          0., 1.32447723e-02, 6.73491716e-01, 6.20274663e-01,
          2.27296099e-01, 1.19587760e-02, 1.00208931e-01, 2.52998710e-01,
          1.77014813e-01, 1.53540507e-01, 2.08710626e-01, 6.20274663e-01,
          2.28052437e-01, 4.43799770e-04, 4.53385189e-02, 2.43215159e-01,
          1.28154412e-01, 6.75510466e-02, 1.12509459e-01, 6.50631249e-01,
          6.50631249e-01, 5.41510642e-01, 5.41510642e-01, 5.41510642e-01,
          3.38365138e-01, 5.53318206e-03, 1.17857417e-03, 6.39646687e-03,
          1.01478025e-03, 1.80568174e-02, 3.86205852e-01, 3.62954259e-01,
          6.48279563e-02, 2.43516743e-01, 3.86205852e-01, 3.59268785e-01,
          3.86205852e-01, 3.86205852e-01, 2.74242312e-01, 2.95752883e-01,
          7.80737251e-02, 2.43852139e-01, 4.15216893e-01, 4.15216893e-01,
          4.15216893e-01, 4.15216893e-01, 3.60420942e-01, 1.52642250e-01,
          3.47079784e-02, 3.14287513e-01, 4.23411459e-01, 4.23411459e-01,
          1.24405727e-01, 1.11418813e-01, 4.23411459e-01, 4.23411459e-01,
          3.88315618e-01, 2.09960975e-02, 2.25990817e-01, 6.84585571e-01,
          6.84585571e-01, 4.69220318e-02, 2.64781818e-04, 4.51029539e-02,
          1.01102935e-02, 1.29222055e-04, 5.93543388e-02, 1.49238454e-02,
          2.10180297e-01, 4.29123968e-01, 1.64484233e-01, 4.29123968e-01,
          4.29123968e-01, 4.29123968e-01, 4.29123968e-01, 3.87462348e-01,
          3.87462348e-01, 8.42745230e-02, 3.29492748e-01, 2.80350119e-01,
          3.87462348e-01, 3.87462348e-01, 2.26340428e-01, 3.87462348e-01,
          4.40353304e-01, 4.40353304e-01, 4.40353304e-01, 3.78051326e-02,
          4.06043679e-02, 4.40353304e-01, 4.40353304e-01, 1.51515618e-01,
          3.35883838e-03, 0., 6.62225485e-03, 6.43470585e-01,
          6.43470585e-01, 4.06502455e-01, 0., 1.32580101e-02,
          1.75189471e-03, 0., 4.62191291e-02, 1.55290065e-04,
          1.57275558e-01, 6.15092993e-01, 6.15092993e-01, 5.04961982e-03,
          9.25011560e-02, 1.72018185e-01, 4.14892465e-01, 4.36778516e-01,
          1.95188269e-01, 6.52488228e-03, 4.36778516e-01, 4.36778516e-01,
          4.36778516e-01, 4.97482717e-02, 3.38206775e-02, 4.36778516e-01,
          2.31339589e-01, 1.98015392e-01, 0., 0., 2.83300102e-01,
          8.24342251e-01, 3.72946769e-01, 1.16417725e-02, 4.63395007e-03 ]
      - [ 5.68970382e-01, 5.68970382e-01, 1.11452006e-01, 0.,
          2.08532158e-03, 5.68970382e-01, 1.00007966e-01, 0.,
          2.66255923e-02, 4.29819793e-01, 4.29819793e-01, 1.69414165e-03,
          2.29049474e-01, 4.29819793e-01, 4.29819793e-01, 1.39695063e-01,
          0., 4.29819793e-01, 3.43012124e-01, 8.33743135e-04,
          7.59719685e-02, 4.60023493e-01, 4.60023493e-01, 1.59382030e-01,
          9.28407721e-03, 4.60023493e-01, 4.60023493e-01, 5.04934713e-02,
          0., 5.00740334e-02, 4.89300907e-01, 7.33636916e-02, 0.,
          7.02575147e-02, 6.07922435e-01, 6.07922435e-01, 4.64976698e-01,
          4.64976698e-01, 2.98619002e-01, 3.12872007e-02, 4.00830805e-03,
          4.64976698e-01, 4.64976698e-01, 1.86076626e-01, 7.58253485e-02,
          2.15050012e-01, 3.66447359e-01, 1.23067549e-03, 8.18814933e-02,
          4.62870389e-01, 5.33727705e-01, 5.33727705e-01, 1.30388066e-01,
          8.03309754e-02, 1.59338899e-02, 8.19561034e-02, 5.64703584e-01,
          5.64703584e-01, 4.65006322e-01, 6.27895668e-02, 1.69118866e-03,
          2.83308417e-01, 2.21743450e-01, 3.26126628e-02, 6.31093606e-02,
          4.67674255e-01, 4.67674255e-01, 3.54611650e-02, 0.,
          4.67674255e-01, 4.67674255e-01, 3.37857991e-01, 1.10254332e-01,
          2.85352945e-01, 4.21865135e-01, 4.21865135e-01, 1.34166591e-02,
          1.10329263e-01, 4.21865135e-01, 4.21865135e-01, 4.21865135e-01,
          6.89130947e-02, 6.80269068e-03, 7.57534131e-02, 2.92782098e-01,
          1.23554803e-02, 6.54805005e-02, 5.45849025e-01, 5.45849025e-01,
          5.45849025e-01, 5.64964950e-01, 5.64964950e-01, 5.64964950e-01,
          1.04810677e-01, 1.17317615e-02, 6.35223687e-02, 6.15978905e-04,
          1.32837985e-02, 1.46517426e-01, 1.06314853e-01, 4.42677230e-01,
          4.42677230e-01, 8.92453119e-02, 1.18878726e-02, 4.42677230e-01,
          4.42677230e-01, 4.38083351e-01, 1.99898817e-02, 0.,
          1.33665930e-02, 6.01000607e-01, 6.01000607e-01, 1.05778456e-01,
          0., 9.00169760e-02, 4.83055562e-01, 1.37047738e-01,
          2.41326436e-01, 6.36790995e-04, 2.19806954e-01, 4.69434112e-01,
          4.69434112e-01, 4.31398787e-02, 7.36385733e-02, 4.69434112e-01,
          4.69434112e-01, 4.52220887e-01, 4.52220887e-01, 3.69169042e-02,
          8.19614977e-02, 4.52220887e-01, 4.52220887e-01, 5.21443337e-02,
          9.35288295e-02, 3.97392571e-01, 3.23402196e-01, 5.29085934e-01,
          7.11241290e-02, 0., 2.08172187e-01, 5.29085934e-01,
          5.29085934e-01, 4.39398922e-02, 2.52444763e-03 ]
      - [ 6.87478960e-01, 6.87478960e-01, 1.70444980e-01, 0.,
          3.54698184e-03, 1.20517597e-01, 3.05773802e-02, 2.27521546e-02,
          5.33031747e-02, 4.54699039e-01, 4.53241199e-01, 2.00515799e-03,
          1.36177778e-01, 3.87506694e-01, 4.54699039e-01, 3.07055861e-02,
          1.11456383e-02, 4.54699039e-01, 4.08690870e-01, 5.77438297e-03,
          1.25711188e-02, 4.85097498e-01, 3.39846671e-01, 8.05034861e-02,
          0., 4.85097498e-01, 4.85097498e-01, 3.51435095e-02, 0.,
          3.42024714e-02, 1.32107198e-01, 1.91942342e-02, 0.,
          1.56989664e-01, 6.88569129e-01, 6.88569129e-01, 4.36020404e-01,
          4.45734710e-01, 4.45734710e-01, 3.62815498e-03, 1.71723985e-03,
          4.45734710e-01, 4.45734710e-01, 1.03440896e-01, 3.30202805e-04,
          2.21677259e-01, 1.67479843e-01, 1.27617093e-02, 2.29598865e-01,
          4.42310214e-01, 5.76244593e-01, 5.76244593e-01, 6.50065467e-02,
          1.40475305e-02, 9.55213606e-03, 5.63663878e-02, 5.65640807e-01,
          5.65640807e-01, 4.70534086e-01, 1.35682762e-01, 5.48996311e-03,
          1.70208231e-01, 2.87003696e-01, 0., 6.97936937e-02,
          4.69611496e-01, 3.53502661e-01, 1.43812699e-02, 2.24290546e-02,
          4.69611496e-01, 4.69611496e-01, 4.50731993e-01, 3.48373055e-02,
          3.15089732e-01, 4.42706913e-01, 4.42706913e-01, 1.42414659e-01,
          2.79950708e-01, 4.42706913e-01, 4.42706913e-01, 1.11671470e-01,
          4.57987398e-01, 2.63820179e-02, 6.59873104e-03, 6.75851181e-02,
          2.91754436e-02, 3.87630016e-01, 4.57987398e-01, 4.57987398e-01,
          4.57987398e-01, 5.51716208e-01, 5.51716208e-01, 5.51716208e-01,
          1.65942833e-01, 1.28219519e-02, 1.37306035e-01, 8.64859596e-02,
          0., 1.65178835e-01, 9.21985731e-02, 4.83934313e-01,
          4.83934313e-01, 6.27034083e-02, 1.11162872e-03, 4.83934313e-01,
          4.83934313e-01, 2.14354813e-01, 3.92329134e-03, 1.32143468e-01,
          4.35655177e-01, 4.35655177e-01, 4.35655177e-01, 4.35655177e-01,
          1.22711726e-01, 1.05681121e-01, 5.46123460e-02, 4.35655177e-01,
          4.85091507e-01, 1.39068633e-01, 2.29589287e-02, 4.85091507e-01,
          4.85091507e-01, 1.60528570e-01, 7.26073831e-02, 5.46933189e-02,
          4.85091507e-01, 4.88918841e-01, 4.80825275e-01, 2.90285307e-03,
          6.01731278e-02, 4.88918841e-01, 4.88918841e-01, 1.00241348e-01,
          0., 1.81993008e-01, 1.43767908e-01, 2.53258228e-01,
          1.15218125e-02, 1.28718745e-02, 3.35898012e-01, 6.29972696e-01,
          6.29972696e-01, 4.42008823e-02, 9.51009523e-03 ]
      - [ 6.23740137e-01, 4.64333296e-01, 7.96909817e-03, 0., 0., 0., 0.,
          0., 6.23740137e-01, 6.88777387e-01, 2.10465014e-01, 0., 0., 0.,
          0., 0., 0., 6.88777387e-01, 6.73945606e-01, 1.27800712e-02, 0.,
          0., 0., 0., 0., 2.91038245e-01, 6.73945606e-01, 5.43906152e-01,
          0., 0., 0., 0., 0., 0., 5.90874851e-01, 5.90874851e-01,
          5.16148746e-01, 5.16148746e-01, 2.63463587e-01, 4.77979742e-02,
          3.11673760e-01, 5.16148746e-01, 8.70224833e-02, 5.56987943e-03,
          1.38472095e-01, 4.82194155e-01, 2.52689958e-01, 0.,
          3.15881968e-02, 4.82194155e-01, 4.82194155e-01, 1.69412866e-02,
          1.43208227e-03, 4.82194155e-01, 4.36906815e-01, 1.80138811e-01,
          1.22036971e-01, 4.36906815e-01, 4.36906815e-01, 5.53918146e-02,
          0., 4.26232368e-01, 4.36906815e-01, 1.14023335e-01,
          1.89339831e-01, 2.09485725e-01, 4.69057143e-01, 8.25455040e-02,
          1.25330523e-01, 4.69057143e-01, 4.69057143e-01, 4.69057143e-01,
          3.30878913e-01, 3.69953811e-01, 3.69953811e-01, 3.69953811e-01,
          3.69953811e-01, 3.69953811e-01, 2.04128876e-01, 1.54789329e-01,
          3.69953811e-01, 5.11117876e-01, 1.69048861e-01, 5.53785078e-02,
          2.89285332e-01, 5.11117876e-01, 2.99473584e-01, 3.19714323e-02,
          7.16516152e-02, 5.11117876e-01, 4.69272137e-01, 4.69272137e-01,
          1.05282664e-01, 2.01351717e-01, 4.69272137e-01, 4.69272137e-01,
          4.14569303e-02, 2.12189183e-02, 2.46275216e-01, 2.40574181e-01,
          4.93456095e-01, 1.68685108e-01, 1.03776090e-01, 2.31751472e-01,
          4.93456095e-01, 4.93456095e-01, 3.25646341e-01, 8.78658444e-02,
          9.40689668e-02, 5.03720231e-02, 5.19763589e-01, 5.80746114e-01,
          5.80746114e-01, 5.07422164e-02, 0., 4.84955311e-02,
          1.82213739e-01, 2.69855946e-01, 1.09685875e-01, 3.66186611e-02,
          5.55287421e-01, 7.01770186e-01, 1.57777444e-01, 0.,
          3.64236273e-02, 2.82408535e-01, 2.81902224e-01, 2.28189662e-01,
          0., 3.01784221e-02, 6.54678941e-01, 6.54678941e-01,
          1.52485408e-02, 1.11099230e-02, 5.87269664e-02, 5.97173274e-02,
          8.88802037e-02, 0., 0., 6.91213608e-01, 6.91213608e-01,
          1.61423624e-01, 4.87539824e-03, 0. ]
      - [ 6.88571751e-01, 6.88571751e-01, 1.11866239e-02, 0.,
          2.13491544e-02, 1.71529263e-01, 1.35761872e-02, 0.,
          1.21146671e-01, 5.63547552e-01, 2.93527871e-01, 0.,
          1.97031591e-02, 4.25454676e-01, 3.02680701e-01, 5.15702832e-03,
          0., 5.63547552e-01, 4.85702813e-01, 0., 8.28750897e-03,
          2.94342339e-01, 4.57682699e-01, 1.43683583e-01, 3.35742324e-03,
          4.54421252e-01, 4.85702813e-01, 1.12811640e-01, 0.,
          3.41319889e-02, 2.32007071e-01, 3.38383988e-02, 0.,
          1.64501399e-01, 6.69846356e-01, 6.69846356e-01, 4.85569715e-01,
          4.85569715e-01, 3.29734296e-01, 0., 6.13075793e-02,
          4.85569715e-01, 4.04431641e-01, 1.07244544e-01, 1.63293257e-02,
          4.67758745e-01, 3.03316325e-01, 8.04215446e-02, 2.30798777e-02,
          4.67758745e-01, 4.67758745e-01, 1.05438575e-01, 1.64359778e-01,
          4.49222267e-01, 1.94177285e-01, 4.90409769e-02, 3.74677658e-01,
          4.62837368e-01, 4.62837368e-01, 2.43934587e-01, 4.55073034e-03,
          3.35713983e-01, 4.62837368e-01, 2.20859842e-03, 9.09990817e-02,
          4.43738669e-01, 4.43738669e-01, 2.42767744e-02, 4.66100052e-02,
          4.43738669e-01, 4.43738669e-01, 4.43738669e-01, 1.50925130e-01,
          3.81476879e-01, 3.81476879e-01, 3.81476879e-01, 3.19697738e-01,
          2.41766363e-01, 3.81476879e-01, 3.81476879e-01, 2.91770101e-01,
          3.24805051e-01, 2.76584327e-01, 3.74699593e-01, 3.74699593e-01,
          3.74699593e-01, 2.48833746e-01, 2.24370703e-01, 3.74699593e-01,
          3.74699593e-01, 3.86526674e-01, 3.86526674e-01, 2.31436133e-01,
          3.86526674e-01, 3.86526674e-01, 2.14538455e-01, 1.14804618e-02,
          3.86526674e-01, 3.86526674e-01, 1.70753852e-01, 4.34836924e-01,
          4.34836924e-01, 1.17316715e-01, 1.49518654e-01, 4.34836924e-01,
          4.34836924e-01, 4.02831823e-01, 1.08510166e-01, 3.91019993e-02,
          1.01797273e-02, 2.73886174e-01, 6.51284575e-01, 6.51284575e-01,
          9.03251544e-02, 5.21220416e-02, 2.14602590e-01, 1.07603945e-01,
          5.61695844e-02, 1.25053292e-02, 9.16661620e-02, 5.37431300e-01,
          5.37431300e-01, 5.37431300e-01, 2.38505065e-01, 1.90095216e-01,
          1.52972907e-01, 1.41059786e-01, 8.14897940e-02, 1.10002439e-02,
          5.16003609e-01, 5.16003609e-01, 5.16003609e-01, 2.10879799e-02,
          1.02542073e-01, 3.98055971e-01, 1.13754228e-01, 2.39457324e-01,
          0., 2.18360946e-02, 5.67892075e-01, 5.67892075e-01,
          5.24343729e-01, 1.02557056e-02, 5.93978278e-02 ]
      - [ 5.22340655e-01, 5.22340655e-01, 5.22340655e-01, 2.42639817e-02,
          2.83198785e-02, 2.65708238e-01, 1.60215646e-01, 2.14866564e-01,
          1.80099905e-01, 4.55166072e-01, 3.60148787e-01, 2.18381621e-02,
          6.49551079e-02, 4.55166072e-01, 4.55166072e-01, 1.38326898e-01,
          1.14940912e-01, 4.55166072e-01, 4.48269516e-01, 1.22964419e-02,
          3.40393670e-02, 4.48269516e-01, 4.48269516e-01, 8.77633914e-02,
          0., 4.27466571e-01, 4.48269516e-01, 9.63771567e-02, 0.,
          8.51125121e-02, 5.67468703e-01, 6.51179999e-02, 4.66503948e-03,
          8.64658877e-02, 5.67468703e-01, 5.67468703e-01, 1.56512082e-01,
          4.39661950e-01, 4.39661950e-01, 9.99747887e-02, 1.85534105e-01,
          4.39661950e-01, 4.05804396e-01, 4.26477790e-01, 1.50337713e-02,
          1.17186993e-01, 1.67015657e-01, 2.20501363e-01, 5.78509606e-02,
          4.74691004e-01, 4.74691004e-01, 4.74691004e-01, 4.74691004e-01,
          1.83828697e-02, 6.57755276e-03, 6.76393434e-02, 5.56753099e-01,
          5.56753099e-01, 5.56753099e-01, 1.00522391e-01, 2.80756913e-02,
          1.55951142e-01, 1.57118589e-01, 1.29046598e-02, 1.07985400e-01,
          4.55341250e-01, 4.55341250e-01, 2.77501587e-02, 1.50226420e-02,
          4.55341250e-01, 4.55341250e-01, 3.91517460e-01, 5.04883565e-02,
          4.05835479e-01, 4.05835479e-01, 3.54568988e-01, 1.04134597e-01,
          4.05835479e-01, 4.05835479e-01, 4.05835479e-01, 1.82541117e-01,
          3.82380962e-01, 4.77924384e-02, 3.04593444e-02, 8.40628445e-02,
          1.59656584e-01, 4.50974375e-01, 4.50974375e-01, 4.50974375e-01,
          4.50974375e-01, 6.27631605e-01, 6.27631605e-01, 3.04692119e-01,
          9.53254011e-03, 3.87596898e-04, 9.75342840e-02, 7.50201102e-03,
          8.88310745e-03, 3.21425498e-01, 4.22155827e-01, 4.34705794e-01,
          4.34705794e-01, 6.54814094e-02, 3.23212706e-04, 4.34705794e-01,
          4.34705794e-01, 2.39045590e-01, 1.16172060e-02, 1.00079430e-02,
          4.67742942e-02, 4.76070017e-01, 4.76070017e-01, 4.76070017e-01,
          0., 3.33064348e-02, 4.76070017e-01, 2.92022020e-01,
          4.45785493e-01, 1.04256468e-02, 2.57753534e-03, 4.45785493e-01,
          4.45785493e-01, 4.19410840e-02, 7.02565908e-03, 4.45785493e-01,
          4.45785493e-01, 4.85574454e-01, 4.64904010e-01, 8.92208132e-04,
          4.61984836e-02, 4.85574454e-01, 4.85574454e-01, 2.42124908e-02,
          6.42121723e-03, 2.62496233e-01, 3.90251994e-01, 5.26992500e-01,
          1.61845598e-03, 0., 3.59186590e-01, 5.26992500e-01,
          3.97256792e-01, 1.28566874e-02, 1.57556834e-03 ]
      - [ 5.64034522e-01, 5.64034522e-01, 5.64034522e-01, 3.00774872e-02,
          9.90982726e-02, 1.65735900e-01, 2.28772871e-02, 1.49076730e-02,
          3.19975875e-02, 4.68066990e-01, 4.68066990e-01, 1.36148974e-01,
          7.97737390e-02, 4.02865857e-01, 4.68066990e-01, 1.25357851e-01,
          2.89188214e-02, 3.66486877e-01, 3.10819954e-01, 3.76239456e-02,
          1.33750305e-01, 4.35348272e-01, 4.10266131e-01, 3.66576910e-01,
          9.19571295e-02, 4.35348272e-01, 4.35348272e-01, 3.13370153e-02,
          2.24948162e-04, 4.61235084e-02, 4.09011900e-01, 8.80614445e-02,
          0., 5.21738887e-01, 5.21738887e-01, 5.21738887e-01,
          5.52940778e-02, 6.23948276e-01, 6.23948276e-01, 8.07707459e-02,
          1.85664460e-01, 3.37784410e-01, 9.61792693e-02, 1.05119094e-01,
          1.91562250e-01, 7.22908154e-02, 3.94343197e-01, 3.34696591e-01,
          6.66200519e-02, 3.74697268e-01, 3.94343197e-01, 3.94343197e-01,
          3.94343197e-01, 3.34589779e-01, 1.04365520e-01, 4.00631279e-01,
          4.00631279e-01, 4.00631279e-01, 3.04774255e-01, 2.04185858e-01,
          3.95312726e-01, 4.00631279e-01, 2.28544354e-01, 1.58499852e-01,
          3.70443672e-01, 3.53883088e-01, 3.24721396e-01, 4.75352965e-02,
          7.11623877e-02, 5.15482128e-01, 5.15482128e-01, 2.51110733e-01,
          1.89618790e-04, 4.89734560e-01, 5.43896437e-01, 5.14757872e-01,
          1.00636603e-02, 1.15371570e-01, 1.39785171e-01, 3.36388230e-01,
          2.18679309e-01, 5.16539998e-02, 1.71872914e-01, 3.97226244e-01,
          3.97226244e-01, 1.30733326e-01, 3.97226244e-01, 3.97226244e-01,
          3.97226244e-01, 3.97226244e-01, 3.07199329e-01, 4.70532030e-01,
          4.70532030e-01, 7.41189299e-03, 9.22324974e-03, 4.70532030e-01,
          4.70532030e-01, 1.18457876e-01, 3.39842848e-02, 3.19382921e-02,
          5.43120325e-01, 1.65848583e-01, 1.36406291e-02, 7.51270796e-04,
          5.43120325e-01, 5.43120325e-01, 2.84468383e-01, 1.59484509e-03,
          5.75219339e-04, 1.38294697e-01, 6.72458351e-01, 6.72458351e-01,
          3.61848250e-03, 0., 6.72279671e-03, 1.10776253e-01,
          2.39647463e-01, 2.94123322e-01, 9.77204069e-02, 4.29497898e-01,
          4.48096573e-01, 3.17415923e-01, 1.02916621e-01, 3.57988365e-02,
          4.48096573e-01, 4.48096573e-01, 4.44557637e-01, 4.44557637e-01,
          3.96053270e-02, 1.53400242e-01, 3.28308910e-01, 4.44557637e-01,
          4.44557637e-01, 1.70456886e-01, 2.07583770e-01, 6.95457384e-02,
          2.04444632e-01, 2.17714030e-02, 0., 2.18430068e-03,
          6.81680858e-01, 6.81680858e-01, 1.26344159e-01, 2.72330213e-02 ]
      - [ 4.87254530e-01, 4.87254530e-01, 4.87254530e-01, 1.31087348e-01,
          1.42104208e-01, 8.99334773e-02, 0., 0., 4.87254530e-01,
          5.19886613e-01, 3.55628550e-01, 7.55995587e-02, 1.70544103e-01,
          5.19886613e-01, 1.50630310e-01, 0., 0., 5.19886613e-01,
          4.96088952e-01, 3.32443416e-02, 1.94003861e-02, 2.48431131e-01,
          4.96088952e-01, 1.04650506e-03, 0., 4.39922780e-01,
          4.96088952e-01, 1.41658813e-01, 0., 2.64628194e-02,
          1.11407869e-01, 4.51944582e-02, 0., 1.78060457e-01,
          6.80543542e-01, 6.80543542e-01, 3.23114872e-01, 3.71964484e-01,
          4.15634006e-01, 4.15634006e-01, 1.94697902e-01, 1.25949934e-01,
          9.11587328e-02, 4.15634006e-01, 4.15634006e-01, 3.54560226e-01,
          1.38578072e-01, 1.05703980e-01, 3.36952984e-01, 4.59935099e-01,
          4.59935099e-01, 1.87254205e-01, 4.59935099e-01, 2.36840248e-01,
          9.36987922e-02, 1.93632513e-01, 4.40440893e-01, 4.40440893e-01,
          4.40440893e-01, 4.64279018e-03, 2.55159102e-02, 4.15574402e-01,
          4.40440893e-01, 6.72903378e-03, 1.02551065e-01, 4.93851811e-01,
          3.13962638e-01, 1.56843923e-02, 1.03183021e-03, 4.93851811e-01,
          4.93851811e-01, 3.92450243e-01, 1.34441545e-02, 1.05870962e-01,
          5.47388375e-01, 5.47388375e-01, 1.69128086e-02, 4.28444659e-03,
          2.47185469e-01, 5.47388375e-01, 1.51119679e-01, 4.31056499e-01,
          1.15462027e-01, 2.15096056e-01, 4.07709599e-01, 1.50887117e-01,
          6.21572323e-02, 4.31056499e-01, 4.31056499e-01, 4.31056499e-01,
          4.85007375e-01, 4.85007375e-01, 4.09661323e-01, 8.02116245e-02,
          2.71080911e-01, 4.85007375e-01, 9.21169445e-02, 1.46033708e-02,
          1.81712270e-01, 1.25522465e-01, 4.56361115e-01, 3.49490196e-01,
          2.67285556e-02, 1.09399490e-01, 4.83040184e-01, 4.83040184e-01,
          4.11911964e-01, 9.67733911e-04, 0., 2.18881499e-02,
          6.34686649e-01, 6.34686649e-01, 3.76483172e-01, 0.,
          6.52831867e-02, 1.72562629e-01, 1.08400106e-01, 4.66849327e-01,
          6.45465255e-02, 5.16315028e-02, 4.66849327e-01, 4.66849327e-01,
          4.38390970e-01, 3.96152809e-02, 1.58094361e-01, 3.40455830e-01,
          5.65292120e-01, 1.28273591e-01, 4.80175158e-03, 8.73141363e-03,
          5.72445810e-01, 5.72445810e-01, 3.25851776e-02, 0.,
          4.15353812e-02, 5.86416833e-02, 6.12112097e-02, 1.76805090e-02,
          0., 6.31915927e-01, 6.31915927e-01, 4.32462335e-01,
          2.30964758e-02, 0. ]
      - [ 6.71512067e-01, 6.71512067e-01, 2.66221195e-01, 0., 0.,
          4.49367873e-02, 8.80897194e-02, 3.06637702e-03, 1.03812233e-01,
          5.54063976e-01, 4.03513044e-01, 1.54737281e-02, 6.82897866e-02,
          3.81130725e-01, 2.64602780e-01, 1.19613238e-01, 1.29481056e-03,
          5.38674474e-01, 4.66820300e-01, 3.09909461e-03, 2.57318541e-02,
          3.49636823e-01, 4.66820300e-01, 2.54252311e-02, 9.40922648e-03,
          4.66820300e-01, 4.66820300e-01, 5.18210083e-02, 0.,
          3.63313965e-02, 1.09298944e-01, 2.58329511e-02, 0.,
          2.37709671e-01, 6.78271353e-01, 6.78271353e-01, 2.37720326e-01,
          5.97858071e-01, 5.97858071e-01, 6.98777149e-03, 3.35069522e-02,
          3.00073683e-01, 3.60197663e-01, 4.06400114e-02, 6.41978253e-03,
          2.81933039e-01, 3.63810867e-01, 6.87910244e-02, 8.70274529e-02,
          4.04372782e-01, 4.04372782e-01, 4.04372782e-01, 3.43133181e-01,
          4.04372782e-01, 3.67346294e-02, 1.89376101e-02, 4.55401659e-01,
          4.55401659e-01, 4.55401659e-01, 1.86558113e-01, 2.97216326e-01,
          3.59952122e-01, 3.44766527e-01, 0., 2.21201051e-02,
          4.88268614e-01, 4.88268614e-01, 1.06882928e-02, 0.,
          4.88268614e-01, 4.88268614e-01, 2.02224568e-01, 9.99688208e-02,
          4.21804249e-01, 4.21804249e-01, 4.21804249e-01, 1.18288293e-01,
          3.39813739e-01, 4.21804249e-01, 3.79810035e-01, 1.99059863e-02,
          4.18526232e-01, 2.58334458e-01, 2.88559608e-02, 2.22719479e-02,
          4.18526232e-01, 4.18526232e-01, 4.18526232e-01, 4.18526232e-01,
          2.27887467e-01, 4.70103949e-01, 4.70103949e-01, 4.70103949e-01,
          2.89384186e-01, 1.29436880e-01, 2.16869742e-01, 1.26640216e-01,
          2.65045017e-02, 4.09928679e-01, 1.31287873e-01, 4.38783884e-01,
          4.38783884e-01, 1.24791689e-01, 1.05917938e-02, 4.38783884e-01,
          4.38783884e-01, 4.38783884e-01, 6.23609964e-03, 0.,
          7.97268376e-02, 4.57039028e-01, 4.57039028e-01, 4.57039028e-01,
          3.50779235e-01, 4.57039028e-01, 1.74624592e-01, 0.,
          3.90091211e-01, 3.90091211e-01, 3.90091211e-01, 3.90091211e-01,
          3.90091211e-01, 1.93059713e-01, 3.90091211e-01, 1.36130244e-01,
          1.65143684e-01, 4.95667666e-01, 2.90799707e-01, 3.78215685e-02,
          1.73883721e-01, 4.95667666e-01, 4.95667666e-01, 4.65988480e-02,
          6.35329110e-04, 3.73614699e-01, 1.51788354e-01, 2.77443200e-01,
          4.68855090e-02, 0., 4.48949069e-01, 5.86915135e-01,
          5.86915135e-01, 3.47932242e-02, 1.49075743e-02 ]
      - [ 6.41611397e-01, 6.41611397e-01, 2.68637478e-01, 0.,
          6.67299656e-03, 2.10999668e-01, 4.91243601e-02, 0.,
          2.26095095e-01, 4.72128928e-01, 4.72128928e-01, 5.23923617e-03,
          3.31268013e-02, 4.53569740e-01, 4.72128928e-01, 7.70614594e-02,
          4.25040387e-02, 3.34621936e-01, 4.39155191e-01, 3.98682803e-02,
          1.36335790e-01, 4.39155191e-01, 4.39155191e-01, 1.01376422e-01,
          2.95415465e-02, 4.39155191e-01, 4.39155191e-01, 4.73745130e-02,
          0., 1.47930145e-01, 1.74315691e-01, 3.64658646e-02, 0.,
          5.59336245e-01, 5.59336245e-01, 5.59336245e-01, 2.36210749e-01,
          4.53083485e-01, 4.53083485e-01, 3.93759966e-01, 8.07888582e-02,
          4.53083485e-01, 4.02169764e-01, 1.84007939e-02, 1.31210312e-02,
          3.25324923e-01, 2.95805305e-01, 4.57588024e-02, 6.11236095e-02,
          5.14542401e-01, 5.14542401e-01, 5.14542401e-01, 3.00967917e-02,
          2.29498744e-02, 1.68749690e-02, 4.14813429e-01, 4.14813429e-01,
          4.14813429e-01, 4.14813429e-01, 1.45441100e-01, 2.66546696e-01,
          4.14813429e-01, 2.07413450e-01, 0., 1.70322791e-01,
          5.16005874e-01, 1.97423220e-01, 2.29925960e-02, 8.60849395e-02,
          5.55549800e-01, 5.55549800e-01, 1.87066838e-01, 2.14006230e-01,
          3.88067305e-01, 3.88067305e-01, 3.88067305e-01, 2.94424564e-01,
          3.02567840e-01, 2.29333088e-01, 3.42217624e-01, 3.88067305e-01,
          4.25796956e-01, 4.25796956e-01, 2.00464696e-01, 1.81263715e-01,
          1.10224061e-01, 2.10298225e-01, 3.75655800e-01, 4.25796956e-01,
          4.25796956e-01, 4.81463432e-01, 4.81463432e-01, 2.59076387e-01,
          5.06604463e-03, 4.93307190e-04, 4.81463432e-01, 4.81463432e-01,
          1.63858701e-02, 2.34141722e-02, 5.17177768e-02, 5.07514060e-01,
          1.06882893e-01, 9.45311133e-03, 1.11279101e-03, 5.84919274e-01,
          5.84919274e-01, 1.95290908e-01, 0., 2.80567277e-02,
          3.93040955e-01, 5.03757417e-01, 5.03757417e-01, 5.03757417e-01,
          3.18101011e-02, 2.34730579e-02, 2.33010620e-01, 1.50096312e-01,
          4.11647767e-01, 2.05924079e-01, 1.82654426e-01, 4.11647767e-01,
          4.11647767e-01, 3.09724569e-01, 7.04433396e-02, 3.76049846e-01,
          4.11647767e-01, 5.02460837e-01, 3.24554145e-01, 0.,
          3.20372805e-02, 5.02460837e-01, 5.02460837e-01, 3.60688150e-01,
          1.87106035e-03, 3.34639288e-02, 4.82322611e-02, 1.01370208e-01,
          0., 0., 7.28788301e-02, 6.97854161e-01, 6.97854161e-01,
          3.34557891e-02, 0. ]
      - [ 6.71693385e-01, 6.71693385e-01, 4.53883559e-02, 0.,
          1.43467896e-02, 2.66073018e-01, 2.33860780e-03, 0.,
          1.33731335e-01, 5.17738998e-01, 2.52699286e-01, 0.,
          6.06702350e-04, 4.22647834e-01, 5.17738998e-01, 2.88677926e-04,
          0., 4.65009004e-01, 4.79638815e-01, 1.21567044e-02,
          2.32746266e-02, 4.15320426e-01, 4.79638815e-01, 3.33785415e-01,
          0., 1.43024072e-01, 4.79638815e-01, 2.26475745e-01, 0.,
          1.04379386e-01, 4.43634778e-01, 8.42146054e-02, 0.,
          1.75282627e-01, 5.90461671e-01, 5.90461671e-01, 4.45714146e-01,
          4.45714146e-01, 4.45714146e-01, 0., 3.04784440e-02,
          4.45714146e-01, 4.45714146e-01, 1.81335583e-02, 3.13791595e-02,
          5.41596055e-01, 1.60232797e-01, 0., 3.66126886e-03,
          5.55362165e-01, 5.55362165e-01, 1.99383795e-01, 2.96004731e-02,
          1.33998334e-01, 1.03584826e-01, 3.27629983e-01, 4.52442139e-01,
          4.52442139e-01, 4.52442139e-01, 4.52442139e-01, 0.,
          7.55346492e-02, 2.29975268e-01, 1.23502186e-03, 3.89307261e-01,
          4.35055941e-01, 4.35055941e-01, 4.81469072e-02, 9.69708115e-02,
          4.35055941e-01, 4.35055941e-01, 2.74365485e-01, 8.24599713e-02,
          4.57063735e-01, 4.57063735e-01, 3.39521825e-01, 2.35513359e-01,
          3.98193866e-01, 4.57063735e-01, 9.58601236e-02, 1.53049007e-01,
          2.41810933e-01, 1.14020966e-01, 4.53435004e-01, 4.53435004e-01,
          8.80196597e-03, 1.23472773e-01, 2.93702602e-01, 4.53435004e-01,
          4.53435004e-01, 4.87086624e-01, 4.87086624e-01, 2.91699767e-01,
          1.67694073e-02, 9.34252609e-03, 3.82674873e-01, 5.30071966e-02,
          2.20608249e-01, 4.87086624e-01, 1.28972694e-01, 5.32563627e-01,
          3.37428033e-01, 7.48121226e-03, 5.29002957e-03, 5.32563627e-01,
          5.32563627e-01, 1.15032353e-01, 1.20644155e-03, 0.,
          8.12527910e-02, 4.44367230e-01, 4.44367230e-01, 4.44367230e-01,
          4.44367230e-01, 4.44367230e-01, 3.72794606e-02, 1.60755403e-02,
          1.21940210e-01, 7.09670335e-02, 4.61234868e-01, 4.61234868e-01,
          4.61234868e-01, 5.18596694e-02, 3.04419175e-02, 3.47736657e-01,
          4.61234868e-01, 4.29041624e-01, 3.82488668e-01, 2.12930702e-02,
          3.18698555e-01, 4.29041624e-01, 4.29041624e-01, 3.79324406e-02,
          9.82280523e-02, 4.29041624e-01, 1.25965416e-01, 3.25514138e-01,
          8.59802705e-04, 0., 2.62877584e-01, 6.33331656e-01,
          6.33331656e-01, 1.88596956e-02, 1.30813085e-02 ]
      - [ 5.14150143e-01, 5.14150143e-01, 1.16392449e-01, 0., 0., 0.,
          2.10989535e-01, 3.79143924e-01, 5.14150143e-01, 5.23604095e-01,
          5.23604095e-01, 5.19749615e-03, 0., 1.19648152e-03,
          1.99845014e-03, 2.19064146e-01, 3.52513403e-01, 5.23604095e-01,
          6.73082769e-01, 1.22787245e-01, 0., 0., 9.53242928e-02,
          5.31362072e-02, 0., 2.45382801e-01, 6.73082769e-01,
          2.48236299e-01, 0., 0., 0., 4.52430509e-02, 2.02797111e-02,
          3.89661118e-02, 6.81029916e-01, 6.81029916e-01, 4.95096505e-01,
          4.95096505e-01, 4.02331114e-01, 7.89611042e-02, 9.30417795e-03,
          1.79547817e-01, 4.95096505e-01, 2.05462903e-01, 1.30573392e-01,
          3.91182065e-01, 3.91182065e-01, 1.22127347e-01, 3.91182065e-01,
          3.91182065e-01, 3.91182065e-01, 3.91182065e-01, 1.80419654e-01,
          1.74599826e-01, 3.90591204e-01, 3.65630567e-01, 3.68855268e-01,
          2.87903577e-01, 3.90591204e-01, 3.90591204e-01, 0.,
          1.82273284e-01, 3.90591204e-01, 3.35333422e-02, 2.13961229e-01,
          4.75805521e-01, 1.51310176e-01, 1.12285055e-01, 8.53088051e-02,
          4.75805521e-01, 4.75805521e-01, 4.75805521e-01, 6.31211922e-02,
          3.99117708e-01, 4.10625130e-01, 4.10625130e-01, 3.23959202e-01,
          6.88911825e-02, 4.10625130e-01, 4.10625130e-01, 2.20161870e-01,
          4.33647484e-01, 7.33853579e-02, 2.72518937e-02, 4.33647484e-01,
          4.33647484e-01, 3.12929183e-01, 2.45862335e-01, 2.81009972e-01,
          4.33647484e-01, 4.70655650e-01, 4.70655650e-01, 1.49379343e-01,
          6.32122830e-02, 4.70655650e-01, 4.70655650e-01, 1.46976421e-02,
          1.13889226e-03, 2.87584603e-01, 1.63318306e-01, 4.37132329e-01,
          2.36066073e-01, 3.11551001e-02, 2.69205868e-01, 5.11528909e-01,
          5.11528909e-01, 3.52016360e-01, 2.69251820e-02, 5.55618480e-02,
          1.21905645e-02, 8.91011432e-02, 6.94564998e-01, 6.94564998e-01,
          0., 2.98709273e-02, 6.98093623e-02, 1.06231183e-01,
          3.26027662e-01, 9.12875868e-03, 0., 6.35301769e-01,
          6.35301769e-01, 8.74175057e-02, 3.57189542e-03, 1.49181457e-02,
          2.68674493e-01, 2.94319868e-01, 3.78597081e-02, 2.23777676e-03,
          4.31361087e-02, 6.68786526e-01, 6.68786526e-01, 2.19164672e-03,
          0., 9.40445885e-02, 2.60824040e-02, 1.06449332e-02,
          6.84238086e-03, 0., 6.51185989e-01, 6.51185989e-01,
          3.80073667e-01, 1.05099818e-02, 2.37316382e-03 ]
      - [ 4.39279407e-01, 4.39279407e-01, 4.39279407e-01, 1.37599278e-02,
          0., 0., 1.74901471e-01, 4.39279407e-01, 4.39279407e-01,
          6.48666561e-01, 6.48666561e-01, 7.88154430e-04, 0.,
          8.08627233e-02, 1.01161413e-01, 3.11228186e-02, 9.69916657e-02,
          3.53324443e-01, 5.89213729e-01, 6.83482289e-02, 0.,
          5.83092570e-02, 4.57937986e-01, 2.04146639e-01, 1.88146438e-02,
          1.99906573e-01, 5.89213729e-01, 3.16422164e-01, 0., 0.,
          1.38629004e-01, 1.48515940e-01, 2.41001546e-02, 1.70050979e-01,
          6.41365945e-01, 6.41365945e-01, 4.58067507e-01, 4.58067507e-01,
          4.58067507e-01, 1.17260180e-01, 1.37906566e-01, 8.77911299e-02,
          1.45613462e-01, 3.07314903e-01, 4.58067507e-01, 4.34627622e-01,
          4.34627622e-01, 3.51698659e-02, 2.72215414e-03, 4.34627622e-01,
          4.34627622e-01, 3.11254501e-01, 2.20010504e-01, 3.05819333e-01,
          4.22511190e-01, 4.22511190e-01, 3.42702329e-01, 2.41119951e-01,
          4.22511190e-01, 4.22511190e-01, 2.35109441e-02, 7.01214746e-02,
          3.17274541e-01, 1.17807828e-01, 4.25020188e-01, 4.25020188e-01,
          2.42999852e-01, 1.97984174e-01, 1.47539780e-01, 4.25020188e-01,
          4.25020188e-01, 3.73219222e-01, 1.23704672e-01, 4.84978408e-01,
          4.84978408e-01, 4.84978408e-01, 4.84978408e-01, 9.02802348e-02,
          1.26787290e-01, 1.19743466e-01, 2.17491370e-02, 1.51927963e-01,
          1.48543427e-02, 1.47106439e-01, 4.24842805e-01, 4.24842805e-01,
          3.52613032e-01, 3.23282480e-01, 4.24842805e-01, 4.24842805e-01,
          4.32301909e-01, 4.32301909e-01, 6.95136115e-02, 2.29045540e-01,
          4.32301909e-01, 4.32301909e-01, 2.46550273e-02, 5.79217151e-02,
          4.32301909e-01, 2.41664305e-01, 5.35970151e-01, 1.89830899e-01,
          5.26449084e-03, 1.48166195e-01, 5.35970151e-01, 5.35970151e-01,
          1.28195927e-01, 1.77365658e-03, 0., 7.68649429e-02,
          5.64062655e-01, 5.78798175e-01, 5.78798175e-01, 1.14388652e-02,
          0., 0., 0., 5.34943156e-02, 7.27888048e-02, 3.83253902e-01,
          6.17546320e-01, 6.17546320e-01, 2.00568676e-01, 6.72867447e-02,
          3.69036347e-02, 1.73050821e-01, 2.02149853e-01, 3.97748910e-02,
          8.61172453e-02, 5.23730755e-01, 5.23730755e-01, 5.23730755e-01,
          3.03697348e-01, 9.41456482e-02, 1.44670412e-01, 4.18415926e-02,
          2.04550773e-02, 0., 0., 6.39958680e-01, 6.39958680e-01,
          4.11714852e-01, 5.31940274e-02, 2.92921881e-03 ]
      - [ 6.79716527e-01, 6.17284298e-01, 0., 0., 2.85932468e-03,
          3.17617431e-02, 0., 0., 3.86190027e-01, 5.96658766e-01,
          4.69159752e-01, 0., 0., 2.55780220e-01, 1.34459481e-01,
          1.07068149e-02, 0., 5.78197360e-01, 6.09149158e-01,
          3.79887819e-02, 0., 1.55182436e-01, 3.41254264e-01,
          7.52325654e-02, 6.73490465e-02, 3.15622360e-01, 6.09149158e-01,
          1.47883937e-01, 0., 0., 1.17070802e-01, 3.88989113e-02, 0.,
          1.88480526e-01, 6.78459167e-01, 6.78459167e-01, 3.55016023e-01,
          3.55016023e-01, 2.64383525e-01, 3.08451176e-01, 3.55016023e-01,
          3.33389968e-01, 3.00135612e-01, 3.55016023e-01, 3.55016023e-01,
          4.80112165e-01, 3.62463176e-01, 8.35579413e-04, 3.45429629e-02,
          4.80112165e-01, 4.80112165e-01, 4.87084091e-02, 1.02126107e-01,
          3.97876620e-01, 3.89071792e-01, 3.17116290e-01, 3.89071792e-01,
          3.89071792e-01, 3.89071792e-01, 2.23029613e-01, 6.62480667e-02,
          2.90748894e-01, 3.89071792e-01, 3.99895608e-02, 1.69126868e-01,
          4.72249478e-01, 2.39642173e-01, 5.25085889e-02, 1.13208614e-01,
          4.72249478e-01, 4.72249478e-01, 4.72249478e-01, 4.56768982e-02,
          4.59933989e-02, 1.98402822e-01, 4.93127644e-01, 4.93127644e-01,
          6.54348284e-02, 1.44804433e-01, 4.93127644e-01, 4.43547845e-01,
          4.38034445e-01, 1.03202136e-02, 1.45593196e-01, 4.38034445e-01,
          4.38034445e-01, 1.21268585e-01, 1.56039586e-02, 4.38034445e-01,
          4.38034445e-01, 4.75081056e-01, 4.75081056e-01, 1.88718036e-01,
          6.45622388e-02, 4.75081056e-01, 4.75081056e-01, 5.92935309e-02,
          1.75537523e-02, 2.20998079e-01, 2.09843904e-01, 3.90439957e-01,
          2.05048949e-01, 1.46751460e-02, 2.54833549e-01, 5.56008041e-01,
          5.56008041e-01, 2.69171000e-01, 5.14590740e-03, 0., 0.,
          1.08196086e-03, 7.04306960e-01, 7.04306960e-01, 0., 0.,
          2.84562241e-02, 7.86026008e-03, 1.19702294e-01, 9.48720705e-03,
          1.55339032e-01, 6.79255486e-01, 6.79255486e-01, 6.33576736e-02,
          0., 6.42670766e-02, 1.54109329e-01, 2.22322062e-01,
          2.91494094e-02, 2.52037607e-02, 1.25455946e-01, 6.80329382e-01,
          6.80329382e-01, 5.93054807e-03, 2.19606119e-03, 2.86549814e-02,
          3.09981871e-02, 2.11068913e-02, 0., 0., 6.59361959e-01,
          6.59361959e-01, 3.49970460e-01, 3.90096987e-03, 0. ]
      - [ 5.64397931e-01, 5.64397931e-01, 1.19129471e-01, 7.64296949e-02,
          1.33397534e-01, 3.00112460e-02, 0., 0., 5.64397931e-01,
          6.20821834e-01, 3.42274494e-02, 0., 2.04677172e-02,
          4.52944279e-01, 1.27330065e-01, 0., 0., 6.20821834e-01,
          5.76431334e-01, 8.21434520e-03, 0., 1.34126276e-01,
          4.18401986e-01, 3.48203592e-02, 1.87463108e-02, 3.67446065e-01,
          5.76431334e-01, 3.82818520e-01, 0., 0., 6.75887838e-02,
          9.62220505e-02, 0., 8.50578323e-02, 6.42639935e-01,
          6.42639935e-01, 3.65997672e-01, 3.65997672e-01, 3.65997672e-01,
          3.25069904e-01, 3.65997672e-01, 3.65997672e-01, 1.78862318e-01,
          3.65997672e-01, 2.34425753e-01, 5.55419624e-01, 1.36087006e-02,
          0., 5.80458120e-02, 5.55419624e-01, 5.55419624e-01,
          1.59215499e-02, 1.05682157e-01, 2.32387543e-01, 4.03694957e-01,
          4.34244931e-01, 1.79240853e-01, 4.34244931e-01, 4.34244931e-01,
          7.52417669e-02, 1.65294148e-02, 2.00888410e-01, 4.34244931e-01,
          1.11150183e-01, 4.18496519e-01, 3.42355102e-01, 3.34797114e-01,
          1.65727675e-01, 1.61697045e-01, 4.18496519e-01, 4.18496519e-01,
          4.18496519e-01, 7.82552268e-03, 3.90515290e-02, 4.95375633e-01,
          4.95375633e-01, 7.15945140e-02, 6.10322431e-02, 5.50207235e-02,
          4.95375633e-01, 4.95375633e-01, 4.34492439e-01, 3.66777986e-01,
          9.17990506e-02, 4.34492439e-01, 2.58178294e-01, 1.75704435e-01,
          6.62492588e-03, 4.34492439e-01, 4.34492439e-01, 5.53114414e-01,
          5.53114414e-01, 4.39057313e-02, 3.74411866e-02, 2.65748173e-01,
          5.53114414e-01, 2.48575713e-02, 2.53330305e-04, 4.58269343e-02,
          2.72923023e-01, 4.62014437e-01, 1.10760443e-01, 2.61497889e-02,
          1.51302233e-01, 5.66485643e-01, 5.66485643e-01, 1.69535026e-01,
          8.39457090e-04, 1.47078568e-02, 5.38364053e-03, 6.36529982e-01,
          6.36529982e-01, 3.34183633e-01, 0., 0., 1.65221348e-01,
          2.09957004e-01, 4.15267229e-01, 7.02172890e-02, 6.86597601e-02,
          4.47987527e-01, 4.47987527e-01, 4.47987527e-01, 0.,
          1.03258952e-01, 4.47987527e-01, 3.79822463e-01, 2.12857231e-01,
          0., 1.47929760e-02, 6.33386195e-01, 6.33386195e-01,
          8.40162113e-03, 3.28939095e-05, 3.81742008e-02, 1.88491344e-02,
          2.12296341e-02, 0., 0., 6.94924414e-01, 6.94924414e-01,
          1.62529185e-01, 1.15827250e-03, 0. ]
      - [ 5.72312772e-01, 5.72312772e-01, 1.07883021e-01, 0., 0., 0., 0.,
          4.54338826e-03, 5.72312772e-01, 7.03737140e-01, 4.69773635e-02,
          0., 0., 0., 0., 0., 1.66211464e-02, 7.03737140e-01,
          6.99931502e-01, 1.14912093e-01, 0., 0., 0., 0., 0., 0.,
          6.99931502e-01, 5.90362430e-01, 1.11794716e-03, 0., 0., 0., 0.,
          1.31742910e-01, 5.28859258e-01, 5.90362430e-01, 5.21734178e-01,
          5.21734178e-01, 5.21734178e-01, 1.21474013e-01, 1.51637167e-01,
          2.01345637e-01, 1.99235648e-01, 9.64875519e-02, 2.25555375e-01,
          5.12827098e-01, 7.72721395e-02, 1.64266825e-02, 2.45569289e-01,
          5.12827098e-01, 3.15437555e-01, 1.53875023e-01, 1.27200514e-01,
          5.12827098e-01, 4.42303658e-01, 1.90057158e-01, 4.15095896e-01,
          4.21130776e-01, 4.42303658e-01, 1.51348695e-01, 5.68266551e-04,
          4.38104325e-04, 4.42303658e-01, 2.75004506e-01, 2.58566160e-02,
          1.12925768e-01, 2.80839149e-02, 2.66021211e-02, 7.97240660e-02,
          5.47002971e-01, 5.47002971e-01, 5.47002971e-01, 4.83350072e-04,
          3.26913923e-01, 5.29873252e-01, 5.29873252e-01, 4.59872007e-01,
          5.37369847e-02, 2.11466998e-01, 1.94533005e-01, 1.71385095e-01,
          4.57161725e-01, 1.77201536e-02, 1.18424520e-02, 4.57161725e-01,
          4.57161725e-01, 2.42260039e-01, 1.54201061e-01, 2.76629806e-01,
          4.57161725e-01, 4.30070013e-01, 3.54436398e-01, 4.14663821e-01,
          2.41564363e-01, 4.30070013e-01, 4.30070013e-01, 3.91261965e-05,
          1.68296078e-03, 2.91368812e-01, 3.80936526e-02, 6.01628534e-02,
          1.29032329e-01, 1.92715656e-02, 5.52162111e-01, 5.52162111e-01,
          5.52162111e-01, 2.40264088e-01, 4.31392388e-03, 4.65734502e-06,
          5.08077256e-03, 8.43292624e-02, 7.02010989e-01, 7.02010989e-01,
          0., 0., 0., 1.47049222e-02, 5.57078496e-02, 0., 1.60971610e-03,
          6.63277805e-01, 6.63277805e-01, 3.09491813e-01, 0., 0.,
          1.20881371e-01, 9.15919617e-02, 2.08956865e-03, 0.,
          1.52797878e-01, 6.92784488e-01, 6.92784488e-01, 0., 0.,
          3.79823372e-02, 7.76392827e-03, 4.45519661e-04, 0.,
          2.49874443e-02, 6.88337862e-01, 6.88337862e-01, 2.11710840e-01,
          2.05653044e-03, 0. ]
      - [ 5.99534631e-01, 5.99534631e-01, 9.29608941e-02, 0.,
          8.41177255e-02, 4.72083509e-01, 6.88350871e-02, 3.66950152e-03,
          1.78320304e-01, 5.12292564e-01, 3.69826734e-01, 1.62609592e-02,
          2.94493176e-02, 4.89242643e-01, 5.12292564e-01, 1.08418889e-01,
          1.83156924e-04, 2.84569055e-01, 4.00401980e-01, 3.49437296e-02,
          2.38157824e-01, 4.00401980e-01, 4.00401980e-01, 3.63544524e-01,
          6.54706955e-02, 4.00401980e-01, 4.00401980e-01, 2.10601352e-02,
          0., 2.64064461e-01, 4.08743441e-01, 9.19425674e-03, 0.,
          1.36675611e-01, 6.07423067e-01, 6.07423067e-01, 3.16287696e-01,
          4.31649297e-01, 4.31649297e-01, 3.58502157e-02, 1.23453237e-01,
          4.31649297e-01, 4.31649297e-01, 3.65743995e-01, 8.44758749e-03,
          2.45596722e-01, 1.00276671e-01, 2.66695046e-03, 1.85155477e-02,
          5.47269225e-01, 5.47269225e-01, 5.47269225e-01, 1.58441246e-01,
          1.40469028e-02, 1.07181363e-01, 4.88967746e-01, 4.88967746e-01,
          4.88967746e-01, 4.13102508e-01, 1.76763609e-01, 1.23365056e-02,
          1.77390337e-01, 1.81222141e-01, 2.06240397e-02, 4.01479393e-01,
          4.65014279e-01, 3.14112037e-01, 2.43466091e-03, 3.80920991e-02,
          4.65014279e-01, 4.65014279e-01, 2.91386425e-01, 3.03155254e-03,
          1.13497443e-01, 4.85139430e-01, 4.85139430e-01, 8.37387294e-02,
          1.83102097e-02, 4.85139430e-01, 4.85139430e-01, 1.82962209e-01,
          4.69339818e-01, 3.60420823e-01, 5.53831458e-02, 1.67935833e-01,
          1.01288460e-01, 5.63950539e-02, 3.99824947e-01, 4.69339818e-01,
          4.69339818e-01, 5.67789197e-01, 5.67789197e-01, 1.45684168e-01,
          4.17246390e-03, 6.92517310e-02, 5.67789197e-01, 1.86951868e-02,
          0., 2.81074177e-02, 1.73840731e-01, 5.16151607e-01,
          3.12652469e-01, 4.18414967e-03, 9.02924389e-02, 5.16151607e-01,
          5.16151607e-01, 2.43853316e-01, 8.92050622e-04, 6.66445727e-03,
          1.46994181e-02, 5.09212196e-01, 5.09212196e-01, 5.09212196e-01,
          0., 2.03871895e-02, 4.39696938e-01, 1.51702538e-01,
          4.55619425e-01, 3.00452292e-01, 8.34033489e-02, 4.55619425e-01,
          4.55619425e-01, 2.64542878e-01, 4.80587035e-03, 2.75200605e-01,
          3.60156655e-01, 5.17422616e-01, 3.72615099e-01, 2.19636336e-02,
          7.61194667e-03, 5.41846931e-01, 5.41846931e-01, 1.07478192e-02,
          0., 1.29895126e-02, 5.18105812e-02, 1.07925624e-01,
          7.18332711e-04, 0., 4.68723506e-01, 8.42534721e-01,
          2.18385518e-01, 9.24148480e-04, 0. ]
      - [ 7.01112330e-01, 9.93544385e-02, 3.61112249e-03, 0., 0., 0., 0.,
          0., 7.01112330e-01, 7.03646958e-01, 5.20491935e-02, 0., 0.,
          3.64315370e-03, 3.93752428e-03, 0., 0., 7.03646958e-01,
          6.88049018e-01, 2.31051142e-03, 0., 3.42058064e-03,
          1.92945182e-01, 9.22331214e-02, 0., 2.35926490e-02,
          6.88049018e-01, 5.54577351e-01, 0., 0., 1.98128372e-02,
          1.88795462e-01, 3.26140411e-02, 1.86263025e-01, 5.54577351e-01,
          5.54577351e-01, 4.39977407e-01, 4.39977407e-01, 4.39977407e-01,
          1.76961541e-01, 3.93710256e-01, 2.69930214e-01, 8.38539004e-02,
          1.05715297e-01, 3.70772183e-01, 5.44213176e-01, 7.81833902e-02,
          6.96274103e-04, 1.05886057e-03, 5.44213176e-01, 5.44213176e-01,
          2.44615432e-02, 4.14711758e-02, 3.12456369e-01, 5.04658639e-01,
          2.13428870e-01, 5.00744097e-02, 1.04611538e-01, 5.04658639e-01,
          5.04658639e-01, 0., 1.17628295e-02, 4.14460689e-01,
          2.76633978e-01, 3.72542530e-01, 2.13634446e-01, 3.72542530e-01,
          3.72542530e-01, 2.03431845e-01, 3.72542530e-01, 3.72542530e-01,
          3.72542530e-01, 5.95271401e-02, 7.61838332e-02, 4.77217883e-01,
          4.77217883e-01, 2.94560313e-01, 1.50968850e-01, 1.00119241e-01,
          4.77217883e-01, 4.27894920e-01, 3.40661883e-01, 7.15602096e-03,
          2.53488291e-02, 4.46187317e-01, 4.46187317e-01, 2.85936385e-01,
          2.65839789e-02, 4.46187317e-01, 4.46187317e-01, 4.52096075e-01,
          4.52096075e-01, 1.21429423e-02, 5.87025993e-02, 4.52096075e-01,
          4.52096075e-01, 2.14982890e-02, 1.75909512e-02, 4.16600227e-01,
          4.84998554e-01, 4.84998554e-01, 3.76978628e-02, 3.36292684e-02,
          1.22756615e-01, 4.84998554e-01, 4.84998554e-01, 1.91320822e-01,
          6.03718264e-03, 8.95028189e-03, 7.67961191e-03, 1.45418093e-01,
          6.90399349e-01, 6.90399349e-01, 0., 0., 5.56154884e-02,
          1.24204487e-01, 1.18312418e-01, 8.76676477e-03, 2.31086891e-02,
          6.02132976e-01, 6.02132976e-01, 2.68610450e-03, 0.,
          7.87847489e-02, 4.98032659e-01, 4.73721921e-01, 8.53285193e-02,
          4.10512928e-03, 2.35381871e-01, 5.89078784e-01, 5.89078784e-01,
          7.95477163e-03, 8.14142451e-03, 1.13339692e-01, 1.12151384e-01,
          6.81511015e-02, 0., 0., 6.27004802e-01, 6.27004802e-01,
          4.36171740e-01, 1.26698462e-03, 0. ]
      - [ 6.83246076e-01, 2.42811516e-01, 2.39069443e-02, 0., 0., 0., 0.,
          0., 6.83246076e-01, 6.99056864e-01, 1.25114679e-01, 0., 0., 0.,
          0., 2.61797966e-03, 3.57533776e-04, 6.99056864e-01,
          7.00346470e-01, 0., 0., 6.75081555e-03, 8.03185403e-02,
          1.55913606e-02, 1.00925853e-02, 7.20893741e-02, 7.00346470e-01,
          5.69039643e-01, 0., 0., 8.84681765e-04, 2.35502031e-02,
          7.83262588e-03, 1.49273753e-01, 5.69039643e-01, 5.69039643e-01,
          4.61121410e-01, 3.67200732e-01, 3.51296455e-01, 4.61121410e-01,
          2.19225764e-01, 1.01305850e-01, 1.35815084e-01, 1.49937466e-01,
          4.61121410e-01, 4.58970845e-01, 1.77625597e-01, 9.18667391e-03,
          7.16006085e-02, 4.58970845e-01, 4.58970845e-01, 1.86535969e-01,
          2.85028189e-01, 4.58970845e-01, 4.06980902e-01, 4.06980902e-01,
          2.35962644e-01, 3.13361436e-01, 4.06980902e-01, 4.06980902e-01,
          8.69557112e-02, 7.95749202e-02, 4.06980902e-01, 1.65435314e-01,
          2.96577603e-01, 2.52040863e-01, 8.89282450e-02, 7.80367479e-02,
          4.47960854e-01, 4.47960854e-01, 4.47960854e-01, 4.47960854e-01,
          1.14077747e-01, 3.64650451e-02, 2.09173754e-01, 6.56968057e-01,
          6.56968057e-01, 4.33315039e-02, 1.19797200e-01, 2.17082486e-01,
          9.36817601e-02, 3.66325259e-01, 2.66744830e-02, 1.06683888e-01,
          4.47656363e-01, 4.47656363e-01, 1.97335541e-01, 9.33554918e-02,
          4.47656363e-01, 4.47656363e-01, 4.50562716e-01, 4.50562716e-01,
          4.65861931e-02, 1.79737926e-01, 4.50562716e-01, 4.50562716e-01,
          1.34672314e-01, 1.25738699e-02, 3.61526817e-01, 1.08007923e-01,
          2.87253320e-01, 6.25402555e-02, 1.43107874e-02, 1.22481897e-01,
          6.60834491e-01, 6.60834491e-01, 8.18547308e-02, 0., 0., 0.,
          4.49679010e-02, 7.03900337e-01, 7.03900337e-01, 0., 0., 0., 0.,
          7.00071380e-02, 0., 3.18707563e-02, 6.99559212e-01,
          6.99559212e-01, 7.23451227e-02, 0., 0., 5.56771345e-02,
          7.30931684e-02, 0., 1.70240947e-03, 2.76888281e-01,
          6.73806369e-01, 6.73806369e-01, 2.34824978e-02, 0.,
          5.17605916e-02, 0., 0., 0., 0., 6.61502540e-01, 6.61502540e-01,
          3.43737721e-01, 8.31801258e-03, 0. ]
      - [ 6.73453808e-01, 6.73453808e-01, 9.32551082e-03, 0., 0.,
          2.67024100e-01, 6.80114105e-02, 0., 1.00907445e-01,
          5.51006854e-01, 5.51006854e-01, 4.63051572e-02, 5.47410809e-02,
          2.39472240e-01, 5.51006854e-01, 5.40459752e-02, 4.97402507e-05,
          1.35141850e-01, 3.82079095e-01, 3.82079095e-01, 2.81064034e-01,
          2.03880921e-01, 3.82079095e-01, 3.82079095e-01, 9.73204002e-02,
          3.69087040e-01, 3.82079095e-01, 1.71165988e-01, 1.13504067e-01,
          1.49401277e-01, 7.83190280e-02, 8.17700028e-02, 7.29160830e-02,
          5.51318347e-01, 5.51318347e-01, 5.51318347e-01, 4.44755703e-01,
          4.44755703e-01, 4.44755703e-01, 3.79870869e-02, 1.27408141e-02,
          4.44755703e-01, 4.44755703e-01, 6.39716387e-02, 2.86611561e-02,
          4.07152236e-01, 4.12054420e-01, 1.03068203e-01, 2.12755129e-02,
          2.62891859e-01, 5.37508786e-01, 5.37508786e-01, 3.19013931e-02,
          5.78201516e-03, 1.66351736e-01, 4.26279038e-01, 4.26279038e-01,
          4.26279038e-01, 4.26279038e-01, 3.85591328e-01, 1.73919752e-01,
          2.36880213e-01, 7.85665363e-02, 7.45333135e-02, 1.47769272e-01,
          4.87375110e-01, 4.21858847e-01, 8.41499865e-02, 1.42933689e-02,
          4.87375110e-01, 4.87375110e-01, 2.64361978e-01, 1.18210735e-02,
          1.93761423e-01, 4.68479246e-01, 4.68479246e-01, 6.62087724e-02,
          1.67637795e-01, 4.68479246e-01, 4.68479246e-01, 2.17393875e-01,
          9.12845358e-02, 2.53181439e-02, 1.17011063e-01, 3.30198646e-01,
          1.52496425e-02, 1.95571870e-01, 5.24273098e-01, 5.24273098e-01,
          5.24273098e-01, 5.42378068e-01, 5.42378068e-01, 5.42378068e-01,
          2.03725681e-01, 1.64732799e-01, 1.69195622e-01, 5.74974976e-02,
          1.66451540e-02, 1.05879426e-01, 9.61712003e-02, 4.42628682e-01,
          4.42628682e-01, 7.54933730e-02, 2.69553903e-02, 4.42628682e-01,
          4.42628682e-01, 4.42628682e-01, 1.74124166e-02, 0.,
          2.60534976e-02, 5.87019801e-01, 5.87019801e-01, 1.24141321e-01,
          0., 3.47855641e-03, 4.87318158e-01, 2.26656094e-01,
          3.30522716e-01, 5.16617484e-02, 1.26185045e-01, 4.64733034e-01,
          4.64733034e-01, 6.00815676e-02, 2.04158388e-03, 4.64733034e-01,
          4.64733034e-01, 4.56408232e-01, 4.56408232e-01, 2.84736920e-02,
          1.34352356e-01, 4.56408232e-01, 4.56408232e-01, 1.57998338e-01,
          3.63405533e-02, 3.42143208e-01, 1.82397828e-01, 4.70862865e-01,
          2.09448580e-02, 0., 2.48036638e-01, 5.80622137e-01,
          5.80622137e-01, 5.49243912e-02, 0. ]
      - [ 6.98165357e-01, 6.98165357e-01, 1.05929434e-01, 0., 0., 0., 0.,
          0., 8.33046660e-02, 5.88083088e-01, 5.88083088e-01,
          4.41230927e-03, 0., 1.96591854e-01, 2.14353144e-01,
          1.09739773e-01, 6.49582245e-04, 4.53636557e-01, 4.50857490e-01,
          2.98661023e-01, 2.89522199e-04, 3.33536901e-02, 4.50857490e-01,
          4.50857490e-01, 2.75050670e-01, 1.28229246e-01, 4.50857490e-01,
          3.72272044e-01, 9.93081601e-04, 6.22579013e-04, 2.23171964e-01,
          4.62249100e-01, 2.67400742e-01, 3.07349056e-01, 4.62249100e-01,
          4.62249100e-01, 4.15064007e-01, 5.70417285e-01, 5.70417285e-01,
          3.51572712e-03, 0., 2.84115613e-01, 2.99588263e-01,
          2.80374140e-02, 1.03281077e-03, 4.44959253e-01, 4.44959253e-01,
          5.14034554e-02, 2.78554372e-02, 4.44959253e-01, 4.44959253e-01,
          4.44959253e-01, 2.96823345e-02, 3.62256728e-02, 2.71149158e-01,
          7.46805891e-02, 1.80809908e-02, 1.46546483e-01, 5.40507615e-01,
          5.40507615e-01, 5.40507615e-01, 6.75894395e-02, 1.12635054e-01,
          2.82488585e-01, 8.65822062e-02, 2.13889144e-02, 3.92282575e-01,
          3.92282575e-01, 3.72691900e-01, 3.92282575e-01, 3.92282575e-01,
          3.92282575e-01, 1.76631100e-02, 4.56297964e-01, 4.56297964e-01,
          4.56297964e-01, 1.34371400e-01, 1.27253965e-01, 3.65584701e-01,
          4.50116962e-01, 0., 1.69110239e-01, 1.08981140e-01,
          3.42259943e-01, 3.98704320e-01, 2.08744958e-01, 3.98704320e-01,
          3.98704320e-01, 3.98704320e-01, 3.98704320e-01, 5.41160166e-01,
          5.41160166e-01, 3.65125351e-02, 7.77398795e-02, 1.80225909e-01,
          2.33891875e-01, 1.23034343e-01, 7.95735121e-02, 5.41160166e-01,
          4.07213837e-01, 4.07213837e-01, 1.09391306e-02, 2.76255561e-03,
          2.94299256e-02, 4.07213837e-01, 4.07213837e-01, 4.07213837e-01,
          4.07213837e-01, 0., 8.11298937e-02, 5.54523408e-01,
          5.54523408e-01, 5.54523408e-01, 4.51024845e-02, 3.36236581e-02,
          2.49453574e-01, 0., 1.38094902e-01, 1.21918106e-02,
          2.67417192e-01, 4.94011134e-01, 4.94011134e-01, 5.56077510e-02,
          5.19723482e-02, 4.07922626e-01, 4.94011134e-01, 4.68192250e-01,
          3.49212319e-01, 4.84465435e-02, 3.07196796e-01, 4.68192250e-01,
          4.68192250e-01, 1.32639691e-01, 4.20173854e-02, 3.15731913e-01,
          2.74257213e-01, 2.20511317e-01, 0., 1.82678774e-02,
          5.34283459e-01, 5.34283459e-01, 5.34283459e-01, 8.01511779e-02,
          8.76799151e-02 ]
      - [ 5.86729705e-01, 5.86729705e-01, 8.87520388e-02, 1.22818751e-02,
          1.38704926e-01, 5.24458170e-01, 1.99569128e-02, 0.,
          5.40061295e-02, 4.56180006e-01, 4.01421607e-01, 0.,
          1.02092708e-02, 4.56180006e-01, 4.56180006e-01, 3.08552366e-02,
          2.91037206e-02, 4.56180006e-01, 4.40090895e-01, 3.23719792e-02,
          4.47533168e-02, 4.40090895e-01, 4.40090895e-01, 1.55412495e-01,
          0., 4.40090895e-01, 4.40090895e-01, 4.34443429e-02, 0.,
          1.00381516e-01, 5.66330373e-01, 2.97284741e-02, 0.,
          1.38949111e-01, 5.66330373e-01, 5.66330373e-01, 3.91318440e-01,
          4.41292107e-01, 4.14368838e-01, 6.50813505e-02, 2.86706656e-01,
          4.41292107e-01, 4.41292107e-01, 1.03880558e-02, 0.,
          2.52529442e-01, 2.03638896e-01, 0., 3.69697586e-02,
          6.29129827e-01, 6.29129827e-01, 3.08297604e-01, 1.43750831e-02,
          1.57914888e-02, 3.65402736e-02, 3.59221101e-01, 4.95029181e-01,
          4.95029181e-01, 4.95029181e-01, 1.46899030e-01, 0.,
          2.43309662e-01, 2.20772311e-01, 4.43448462e-02, 4.03002828e-01,
          4.03002828e-01, 4.03002828e-01, 5.41593060e-02, 1.28866896e-01,
          4.03002828e-01, 4.03002828e-01, 4.03002828e-01, 3.69952947e-01,
          3.16349804e-01, 3.69952947e-01, 2.71470666e-01, 3.69952947e-01,
          3.54357719e-01, 3.69952947e-01, 1.12406217e-01, 3.69952947e-01,
          6.08623385e-01, 1.61732554e-01, 3.21338326e-02, 2.34747250e-02,
          2.17783656e-02, 1.14538468e-01, 2.93340147e-01, 3.54535401e-01,
          6.08623385e-01, 5.70351541e-01, 5.70351541e-01, 1.16866566e-01,
          2.71544624e-02, 3.44462097e-02, 5.58997869e-01, 9.31729376e-02,
          0., 8.34342018e-02, 4.01987374e-01, 5.18343985e-01,
          1.29143491e-01, 3.45613994e-02, 1.27939899e-02, 5.18343985e-01,
          5.18343985e-01, 9.51753855e-02, 9.66353063e-03, 2.01105118e-01,
          2.29343638e-01, 4.61025000e-01, 4.61025000e-01, 4.61025000e-01,
          1.88524881e-03, 0., 2.28415161e-01, 4.61025000e-01,
          4.18498665e-01, 1.02612242e-01, 1.46657810e-01, 4.18498665e-01,
          4.18498665e-01, 4.18118507e-01, 3.50626819e-02, 2.95236677e-01,
          4.18498665e-01, 4.82862860e-01, 4.82862860e-01, 4.13795598e-02,
          5.66779636e-02, 4.82862860e-01, 4.82862860e-01, 2.20858365e-01,
          0., 9.40634161e-02, 1.75462529e-01, 2.56929070e-01, 0.,
          9.86179430e-03, 2.38853022e-01, 6.47892416e-01, 6.47892416e-01,
          7.39649963e-03, 0. ]
      - [ 5.65870464e-01, 5.65870464e-01, 3.54967937e-02, 0., 0.,
          2.86820251e-02, 1.29729092e-01, 1.21691637e-01, 5.65870464e-01,
          4.99030679e-01, 1.90999776e-01, 5.21193608e-04, 0., 0.,
          2.74431929e-02, 4.59006131e-01, 4.99030679e-01, 4.99030679e-01,
          6.85538173e-01, 2.26667941e-01, 0., 0., 0., 0., 1.26690520e-02,
          4.11408097e-02, 6.85538173e-01, 6.33893371e-01, 5.24294972e-02,
          0., 0., 0., 0., 1.71632499e-01, 3.97269368e-01, 6.33893371e-01,
          4.90836769e-01, 4.90836769e-01, 4.90836769e-01, 3.93372551e-02,
          9.61146690e-03, 2.85324991e-01, 3.81746978e-01, 1.16469651e-01,
          1.73174173e-01, 3.77244145e-01, 3.77244145e-01, 5.98119758e-03,
          1.82154495e-03, 3.77244145e-01, 3.77244145e-01, 3.77244145e-01,
          3.77244145e-01, 3.77244145e-01, 5.20620525e-01, 2.51651257e-01,
          2.44676974e-03, 2.27375887e-02, 5.20620525e-01, 5.20620525e-01,
          2.75360085e-02, 1.75129771e-02, 3.41682762e-01, 3.38269830e-01,
          3.38269830e-01, 2.84970999e-01, 3.38269830e-01, 3.38269830e-01,
          3.38269830e-01, 3.38269830e-01, 3.38269830e-01, 3.38269830e-01,
          1.28204212e-01, 3.76833141e-01, 4.43032503e-01, 4.43032503e-01,
          2.29314640e-01, 4.43032503e-01, 3.54971290e-01, 2.33989745e-01,
          1.22313641e-01, 4.09122705e-01, 8.27753693e-02, 5.20433001e-02,
          4.09122705e-01, 4.09122705e-01, 4.09122705e-01, 2.04612166e-01,
          3.27993304e-01, 4.09122705e-01, 4.42621857e-01, 4.42621857e-01,
          2.75707860e-02, 1.18877575e-01, 4.42621857e-01, 4.42621857e-01,
          3.33957858e-02, 8.91167438e-04, 4.42621857e-01, 4.71039921e-01,
          4.71039921e-01, 8.34821388e-02, 5.01243621e-02, 2.86344916e-01,
          4.71039921e-01, 4.71039921e-01, 1.26470163e-01, 1.76308826e-02,
          3.16122994e-02, 3.90985645e-02, 3.86059940e-01, 6.32691622e-01,
          6.32691622e-01, 7.64735341e-02, 8.83398280e-02, 1.17772222e-01,
          1.18292093e-01, 2.32726634e-01, 5.08685084e-03, 4.38116677e-02,
          6.04963720e-01, 6.04963720e-01, 4.09393162e-02, 1.95810813e-02,
          1.26985788e-01, 4.33249742e-01, 3.10512245e-01, 1.76785678e-01,
          3.86332311e-02, 4.69074637e-01, 5.08428276e-01, 5.08428276e-01,
          3.91833261e-02, 3.74286930e-04, 3.56642127e-01, 1.95258766e-01,
          2.42145777e-01, 0., 0., 6.47893906e-01, 6.47893906e-01,
          2.37668827e-01, 1.10814786e-02, 2.50735786e-02 ]
      - [ 6.85701311e-01, 2.29743779e-01, 0., 0., 0., 0., 0., 0.,
          6.85701311e-01, 6.93938792e-01, 1.69201866e-01, 7.51189189e-03,
          0., 0., 2.22277874e-03, 3.57772782e-02, 0., 6.93938792e-01,
          6.84683979e-01, 5.02703786e-02, 8.92110541e-03, 0., 0.,
          2.08599791e-02, 1.96623579e-01, 1.17805392e-01, 6.84683979e-01,
          4.91259754e-01, 0., 0., 0., 0., 1.64075044e-03, 3.46468873e-02,
          4.80224252e-01, 7.20867515e-01, 4.53334391e-01, 4.53334391e-01,
          2.75059789e-01, 1.79970637e-01, 3.07293653e-01, 4.53334391e-01,
          3.59640121e-01, 6.90446347e-02, 2.05792814e-01, 4.83333826e-01,
          2.09530190e-01, 7.84846395e-03, 2.00809948e-02, 4.83333826e-01,
          4.83333826e-01, 1.23273984e-01, 3.40861343e-02, 4.83333826e-01,
          3.96703422e-01, 3.29646587e-01, 3.33287299e-01, 3.96703422e-01,
          3.96703422e-01, 2.91879803e-01, 2.28351682e-01, 9.72469896e-02,
          3.96703422e-01, 2.23269269e-01, 2.97379106e-01, 3.96198183e-01,
          2.72709608e-01, 1.19094156e-01, 3.75915408e-01, 3.96198183e-01,
          3.96198183e-01, 3.96198183e-01, 1.01845853e-01, 2.62327075e-01,
          3.92273277e-01, 3.92273277e-01, 3.92273277e-01, 2.36408293e-01,
          3.54216754e-01, 3.92273277e-01, 3.46441269e-01, 3.98754448e-01,
          2.16570690e-01, 2.82635596e-02, 3.98754448e-01, 3.98754448e-01,
          3.86956781e-01, 5.96124232e-02, 3.98754448e-01, 3.98754448e-01,
          4.83593792e-01, 4.83593792e-01, 7.15109557e-02, 7.38134757e-02,
          4.83593792e-01, 4.83593792e-01, 4.57856543e-02, 2.11529043e-02,
          2.15897977e-01, 2.66228050e-01, 5.18566012e-01, 2.19730064e-01,
          3.92152406e-02, 2.05674410e-01, 5.18566012e-01, 5.18566012e-01,
          1.40600830e-01, 7.29516298e-02, 2.93657114e-03, 5.97350560e-02,
          4.86056477e-01, 6.02709234e-01, 6.02709234e-01, 0., 0.,
          1.35528594e-01, 9.62780565e-02, 3.32458794e-01, 9.81774181e-02,
          1.24490876e-02, 6.03885949e-01, 6.03885949e-01, 2.78728545e-01,
          0., 7.88226351e-02, 2.45741189e-01, 3.23116243e-01,
          2.06559896e-01, 0., 4.92896996e-02, 6.47748768e-01,
          6.47748768e-01, 1.14508262e-02, 2.02800948e-02, 6.58268705e-02,
          4.02919352e-02, 6.29048645e-02, 0., 0., 7.01261342e-01,
          7.01261342e-01, 6.23234287e-02, 0., 0. ]
      - [ 7.00902104e-01, 7.00902104e-01, 8.43872577e-02, 0., 0., 0.,
          4.24591010e-04, 7.82902935e-04, 5.79123609e-02, 6.13619626e-01,
          4.33906347e-01, 1.69385877e-03, 2.35070866e-02, 1.47367477e-01,
          1.71264142e-01, 1.58648994e-02, 2.61690915e-02, 6.13619626e-01,
          5.52635372e-01, 1.47094473e-03, 6.92345873e-02, 1.31779164e-01,
          2.23990262e-01, 7.69935846e-02, 1.70768402e-03, 5.52635372e-01,
          5.52635372e-01, 7.81319588e-02, 1.16002723e-03, 1.58206187e-02,
          6.91276556e-03, 0., 0., 1.39880419e-01, 6.95373237e-01,
          6.95373237e-01, 5.26530445e-01, 5.57611167e-01, 5.57611167e-01,
          1.99896827e-01, 2.07244217e-01, 8.51697326e-02, 7.15795159e-02,
          6.39080256e-03, 3.10149021e-03, 4.03895974e-01, 3.01212698e-01,
          1.24370389e-01, 1.40329525e-01, 4.03395355e-01, 5.17677605e-01,
          5.17677605e-01, 5.23736402e-02, 6.60115108e-02, 7.30771422e-02,
          4.01464939e-01, 4.01464939e-01, 4.01464939e-01, 3.74631494e-01,
          4.01464939e-01, 1.44536629e-01, 1.53424084e-01, 4.01464939e-01,
          1.16585325e-02, 5.89358546e-02, 1.74701631e-01, 2.13149730e-02,
          2.21232828e-02, 1.30607858e-01, 5.60437739e-01, 5.60437739e-01,
          5.60437739e-01, 2.10652083e-01, 4.38737601e-01, 4.38737601e-01,
          4.38737601e-01, 4.38737601e-01, 2.67699152e-01, 3.56588624e-02,
          1.46036178e-01, 2.94990540e-01, 3.98031712e-01, 2.42657602e-01,
          3.52839790e-02, 2.11159095e-01, 3.98031712e-01, 3.98031712e-01,
          3.98031712e-01, 3.14899057e-01, 3.98031712e-01, 4.40787762e-01,
          4.40787762e-01, 4.40787762e-01, 6.36640564e-02, 4.40787762e-01,
          3.89185607e-01, 2.14582160e-01, 5.65001853e-02, 1.16899110e-01,
          9.63627172e-05, 6.56161681e-02, 6.90112039e-02, 3.61666433e-03,
          4.00517195e-01, 5.94479024e-01, 5.94479024e-01, 3.43159318e-01,
          0., 5.68285473e-02, 1.04044788e-01, 3.46147358e-01,
          6.52139366e-01, 6.52139366e-01, 0., 0., 3.36747132e-02,
          8.89432654e-02, 2.39836723e-01, 1.19633051e-02, 0.,
          6.62915647e-01, 6.62915647e-01, 8.09905976e-02, 0.,
          3.37654650e-02, 2.21592605e-01, 1.61929116e-01, 5.24186194e-02,
          2.95406586e-04, 1.37049973e-01, 6.87085629e-01, 6.87085629e-01,
          2.43062750e-02, 2.37164134e-03, 2.48953663e-02, 1.96046294e-05,
          3.07067740e-03, 1.78487797e-04, 1.15323311e-03, 5.74586272e-01,
          5.74586272e-01, 5.74586272e-01, 6.16736710e-02, 0. ]
      - [ 4.75307375e-01, 4.75307375e-01, 3.02628756e-01, 0., 0., 0., 0.,
          4.75307375e-01, 4.75307375e-01, 6.48035824e-01, 6.48035824e-01,
          1.02304472e-02, 0., 1.09572634e-01, 8.65950435e-02, 0.,
          1.22786900e-02, 3.65881294e-01, 6.15276515e-01, 6.77141249e-02,
          4.11962485e-03, 8.69672298e-02, 3.35761368e-01, 1.09363943e-01,
          8.87505058e-03, 3.15889090e-01, 6.15276515e-01, 3.14424574e-01,
          0., 1.13276951e-02, 1.23814024e-01, 7.31281042e-02, 0.,
          8.41634646e-02, 6.58284068e-01, 6.58284068e-01, 4.13117260e-01,
          4.13117260e-01, 4.13117260e-01, 3.76690567e-01, 0.,
          1.17076864e-03, 2.54299697e-02, 4.13117260e-01, 4.13117260e-01,
          3.81978363e-01, 3.81978363e-01, 3.03405702e-01, 1.29414806e-02,
          3.81978363e-01, 3.81978363e-01, 3.81978363e-01, 3.81978363e-01,
          1.68868288e-01, 3.79576802e-01, 2.43454725e-01, 3.36049855e-01,
          3.95000905e-01, 3.95000905e-01, 3.95000905e-01, 6.90570697e-02,
          2.26340383e-01, 3.94588053e-01, 2.96652410e-02, 2.44495928e-01,
          4.37664121e-01, 3.94373685e-01, 1.09370120e-01, 3.57461348e-02,
          4.37664121e-01, 4.37664121e-01, 4.37664121e-01, 5.67724667e-02,
          7.44420812e-02, 5.65161407e-01, 5.65161407e-01, 1.85153693e-01,
          7.92167988e-03, 2.66106315e-02, 1.46017477e-01, 5.38890660e-01,
          2.88166434e-01, 2.69437842e-02, 1.97141916e-01, 4.11109120e-01,
          4.11109120e-01, 1.67954773e-01, 4.11109120e-01, 4.11109120e-01,
          4.11109120e-01, 4.25419301e-01, 4.25419301e-01, 1.28476918e-01,
          1.88022166e-01, 4.25419301e-01, 4.25419301e-01, 7.85629526e-02,
          1.81139633e-01, 4.25419301e-01, 2.68571645e-01, 4.80668306e-01,
          3.44104052e-01, 2.96393316e-02, 1.30656406e-01, 4.80668306e-01,
          4.80668306e-01, 3.05846244e-01, 6.56859018e-03, 0.,
          1.63442572e-03, 2.27523834e-01, 6.86001420e-01, 6.86001420e-01,
          1.31114444e-03, 9.99805797e-03, 9.18933377e-03, 0.,
          8.76196250e-02, 0., 3.18617979e-03, 6.87915325e-01,
          6.87915325e-01, 4.56595533e-02, 1.27696907e-02, 9.24046263e-02,
          1.67940557e-01, 2.81577468e-01, 2.71782838e-02, 0.,
          5.45117736e-01, 5.45117736e-01, 5.45117736e-01, 1.36941136e-03,
          8.38982314e-03, 1.51655763e-01, 7.41141587e-02, 3.95706631e-02,
          0., 1.74869876e-03, 6.53843105e-01, 6.53843105e-01,
          3.62412512e-01, 3.83721804e-03, 5.60590858e-03 ]
      - [ 6.94835722e-01, 6.94835722e-01, 1.20744087e-01, 0.,
          3.02185658e-02, 3.57714891e-02, 4.46416438e-02, 1.68803823e-03,
          9.32894573e-02, 5.40182233e-01, 5.40182233e-01, 4.75974269e-02,
          0., 2.01643407e-01, 5.40182233e-01, 1.22317314e-01,
          4.04196605e-02, 2.44324058e-01, 4.13834482e-01, 1.05668135e-01,
          7.44151250e-02, 4.13834482e-01, 4.13834482e-01, 4.13834482e-01,
          3.87942046e-02, 3.48371536e-01, 4.13834482e-01, 5.83501980e-02,
          4.46806371e-04, 1.63543418e-01, 5.60539246e-01, 6.10643849e-02,
          9.97704687e-04, 1.33822486e-01, 5.60539246e-01, 5.60539246e-01,
          4.93085474e-01, 6.64143503e-01, 4.74475533e-01, 6.96998313e-02,
          1.23694122e-01, 7.87392259e-02, 1.55534729e-01, 1.41664952e-01,
          1.15778387e-01, 2.83152789e-01, 4.37579840e-01, 3.17289755e-02,
          1.99549962e-02, 1.64014608e-01, 4.37579840e-01, 4.37579840e-01,
          4.37579840e-01, 3.48200083e-01, 1.27464337e-02, 9.27435607e-02,
          4.03258532e-01, 4.03258532e-01, 4.03258532e-01, 4.03258532e-01,
          4.03258532e-01, 4.03258532e-01, 1.07252389e-01, 8.16348009e-03,
          1.91538721e-01, 4.66543585e-01, 4.66543585e-01, 1.68653727e-02,
          2.02061851e-02, 4.66543585e-01, 4.66543585e-01, 2.95367420e-01,
          6.10529669e-02, 4.50456917e-01, 4.50456917e-01, 4.50456917e-01,
          4.50456917e-01, 2.68162400e-01, 1.35955140e-01, 2.93234736e-01,
          6.12052754e-02, 5.32552712e-02, 3.36801969e-02, 1.97716597e-02,
          4.21715647e-01, 3.19695801e-01, 4.21715647e-01, 4.21715647e-01,
          4.21715647e-01, 4.21715647e-01, 4.72682565e-01, 4.72682565e-01,
          4.30317968e-01, 2.57424228e-02, 2.48634871e-02, 1.98338196e-01,
          1.66617453e-01, 2.67279774e-01, 4.72682565e-01, 2.52892643e-01,
          4.73988771e-01, 4.73988771e-01, 4.80891764e-02, 9.96904075e-03,
          4.73988771e-01, 4.73988771e-01, 1.73583239e-01, 1.03229107e-02,
          0., 2.85860077e-02, 5.24624884e-01, 5.24624884e-01,
          5.24624884e-01, 3.94795060e-01, 1.48032065e-02, 1.05947971e-01,
          3.07005309e-02, 1.35405689e-01, 0., 2.61216283e-01,
          4.73217547e-01, 4.73217547e-01, 1.12064689e-01, 2.01753862e-02,
          4.73217547e-01, 4.73217547e-01, 4.29724663e-01, 2.44586736e-01,
          5.44190593e-02, 4.29724663e-01, 4.29724663e-01, 4.29724663e-01,
          5.59412949e-02, 8.04827511e-02, 4.29724663e-01, 3.39066714e-01,
          3.95069540e-01, 1.23712448e-02, 1.85050280e-03, 2.97922313e-01,
          5.61642051e-01, 5.61642051e-01, 4.54976559e-02, 3.84384096e-02 ]
      - [ 6.51954710e-01, 6.51954710e-01, 1.75080255e-01, 6.06656168e-03,
          4.34260592e-02, 0., 0., 0., 3.32904726e-01, 6.52004898e-01,
          2.70960033e-01, 6.50639553e-03, 1.61058288e-02, 2.54641920e-01,
          6.86030537e-02, 0., 0., 6.52004898e-01, 5.69639742e-01,
          2.39409111e-03, 7.18227355e-03, 2.47959178e-02, 2.87219137e-01,
          1.06527125e-02, 0., 5.11910558e-01, 5.69639742e-01,
          7.82380030e-02, 0., 0., 1.25855226e-02, 8.10616761e-02, 0.,
          9.43653733e-02, 6.96881533e-01, 6.96881533e-01, 4.05589819e-01,
          4.05589819e-01, 4.05589819e-01, 4.05589819e-01, 4.05589819e-01,
          4.05589819e-01, 0., 1.66880805e-03, 9.44821015e-02,
          5.38841128e-01, 1.46098956e-01, 9.47916601e-03, 1.28940091e-01,
          5.38841128e-01, 5.38841128e-01, 0., 1.68708886e-03,
          2.92415082e-01, 2.47865036e-01, 3.96576226e-01, 3.67936730e-01,
          3.96576226e-01, 3.96576226e-01, 1.02206387e-01, 4.91333380e-02,
          3.96576226e-01, 3.96576226e-01, 1.85446348e-02, 2.93460816e-01,
          3.03819627e-01, 1.09348588e-01, 9.63313580e-02, 9.03412104e-02,
          5.12093008e-01, 5.12093008e-01, 5.12093008e-01, 3.52997839e-01,
          4.12214667e-01, 4.12214667e-01, 4.12214667e-01, 3.67637843e-01,
          1.22037269e-01, 0., 2.03814164e-01, 4.12214667e-01,
          4.95286852e-01, 2.35493422e-01, 7.27383345e-02, 1.71686351e-01,
          4.95286852e-01, 3.54331940e-01, 3.29574570e-03, 2.08182618e-01,
          4.95286852e-01, 4.90326375e-01, 4.90326375e-01, 9.66763273e-02,
          4.18410413e-02, 4.90326375e-01, 4.90326375e-01, 1.41935393e-01,
          1.25536779e-02, 4.49754968e-02, 6.46133870e-02, 3.48003924e-01,
          8.30747634e-02, 1.11512151e-02, 1.19181223e-01, 6.03304327e-01,
          6.03304327e-01, 3.45369160e-01, 1.52495755e-02, 5.48890382e-02,
          1.77796319e-01, 5.47362804e-01, 5.47362804e-01, 5.47362804e-01,
          0., 0., 3.93578336e-02, 2.44013101e-01, 3.93271506e-01,
          4.54842560e-02, 4.89471965e-02, 5.09870112e-01, 5.09870112e-01,
          5.09870112e-01, 4.01163055e-03, 2.16308683e-02, 2.35359311e-01,
          2.74063379e-01, 9.93920788e-02, 0., 3.57457524e-04,
          6.73733711e-01, 6.73733711e-01, 1.74097866e-02, 1.72648201e-04,
          1.21237412e-02, 1.05966758e-02, 7.67441187e-03, 0.,
          4.18029900e-04, 6.33819997e-01, 6.33819997e-01, 4.35893744e-01,
          6.45355368e-03, 0. ]
      - [ 7.01377094e-01, 7.01377094e-01, 7.80130401e-02, 0., 0.,
          8.69534537e-03, 1.22988820e-02, 0., 5.31622320e-02,
          5.52733362e-01, 5.52733362e-01, 7.57312402e-03, 7.09010810e-02,
          2.21924931e-01, 1.99839905e-01, 2.34516505e-02, 1.75952017e-02,
          5.36955774e-01, 5.62817514e-01, 3.72854946e-03, 4.42841686e-02,
          1.34718478e-01, 1.51998937e-01, 2.90054064e-02, 4.49218787e-03,
          5.62817514e-01, 5.62817514e-01, 7.19015999e-03, 9.38100158e-04,
          2.81430059e-03, 0., 0., 1.76116810e-04, 1.68100640e-01,
          6.94531620e-01, 6.94531620e-01, 4.31204230e-01, 5.14423549e-01,
          5.14423549e-01, 2.27386922e-01, 2.29364634e-01, 3.68866831e-01,
          1.98208228e-01, 0., 0., 3.09557736e-01, 3.78942668e-01,
          2.39681721e-01, 3.80976826e-01, 4.06291872e-01, 4.40297842e-01,
          4.40297842e-01, 3.86629207e-03, 2.78449208e-02, 4.92105074e-02,
          7.53128901e-02, 4.81277227e-01, 4.81277227e-01, 2.50720114e-01,
          2.03180134e-01, 2.48864293e-01, 4.81277227e-01, 3.55161726e-01,
          1.20124687e-03, 1.32798003e-02, 1.19280584e-01, 8.35029688e-03,
          6.70016103e-04, 2.52538901e-02, 6.80099487e-01, 6.80099487e-01,
          2.30274931e-01, 2.36933634e-01, 3.64247590e-01, 3.64247590e-01,
          3.64247590e-01, 3.64247590e-01, 3.64247590e-01, 1.07188053e-01,
          3.64247590e-01, 3.64247590e-01, 3.93312126e-01, 2.40138516e-01,
          2.51642346e-01, 1.63434014e-01, 2.73674309e-01, 3.93312126e-01,
          3.93312126e-01, 3.93312126e-01, 3.93312126e-01, 4.27596360e-01,
          4.86596882e-01, 4.86596882e-01, 1.54478446e-01, 2.85091288e-02,
          2.61539340e-01, 4.86596882e-01, 7.67131373e-02, 5.48427068e-02,
          8.19451408e-04, 8.27841535e-02, 2.14851350e-01, 4.25508246e-03,
          9.76726133e-03, 5.68029642e-01, 6.44121170e-01, 4.50434297e-01,
          0., 7.90162012e-02, 1.36651829e-01, 5.61561763e-01,
          5.61561763e-01, 4.04014498e-01, 4.41351021e-03, 3.89306166e-04,
          1.74059853e-01, 3.81087214e-01, 4.66628045e-01, 9.27308798e-02,
          6.46982789e-02, 4.66628045e-01, 4.66628045e-01, 1.35446355e-01,
          3.24561843e-04, 3.05354655e-01, 4.66628045e-01, 4.97929096e-01,
          4.17419553e-01, 1.14838861e-01, 5.60253672e-02, 4.97929096e-01,
          4.97929096e-01, 2.27662846e-01, 1.14106899e-02, 9.32752267e-02,
          2.52103969e-03, 5.23608550e-02, 4.27657999e-02, 0.,
          1.52864113e-01, 6.91344798e-01, 6.91344798e-01, 9.61189643e-02,
          0. ]
      - [ 6.99795067e-01, 6.99795067e-01, 9.90187079e-02, 0., 0., 0., 0.,
          2.20008675e-04, 6.15079142e-02, 6.87681615e-01, 6.87681615e-01,
          5.19735646e-03, 1.27225195e-03, 1.30457003e-02, 6.38575759e-03,
          0., 2.90560973e-04, 2.16987059e-01, 5.94393432e-01,
          9.78632793e-02, 2.31087324e-03, 2.75067016e-02, 1.71224236e-01,
          3.58637832e-02, 3.86246070e-02, 4.94997770e-01, 5.94393432e-01,
          1.16366282e-01, 1.57012918e-03, 2.88891280e-03, 1.03980862e-02,
          2.33075507e-02, 1.02438428e-03, 5.11677682e-01, 5.99165618e-01,
          5.99165618e-01, 5.42550683e-01, 5.42550683e-01, 5.42550683e-01,
          3.23551446e-01, 0., 1.60811674e-02, 5.16534895e-02,
          6.73462264e-03, 6.19731657e-02, 4.44598973e-01, 4.44598973e-01,
          5.11963964e-02, 1.78957619e-02, 4.44598973e-01, 4.44598973e-01,
          4.44598973e-01, 2.27698740e-02, 6.13029115e-02, 1.23199262e-01,
          4.47989851e-01, 4.47989851e-01, 3.57935905e-01, 4.47989851e-01,
          4.47989851e-01, 1.46627665e-01, 1.56431511e-01, 5.89825101e-02,
          3.69160436e-03, 2.43466422e-01, 2.96644688e-01, 8.90709236e-02,
          9.32303295e-02, 5.41328173e-03, 6.42991900e-01, 6.42991900e-01,
          5.25441468e-02, 8.49431977e-02, 1.48221657e-01, 6.75608099e-01,
          6.75608099e-01, 0., 2.51897518e-02, 1.99763194e-01,
          9.97273326e-02, 2.63107680e-02, 3.58621329e-01, 1.32634327e-01,
          2.53046393e-01, 3.92276227e-01, 1.28235206e-01, 3.92276227e-01,
          3.92276227e-01, 3.92276227e-01, 3.92276227e-01, 4.81891632e-01,
          4.81891632e-01, 4.42922175e-01, 4.71521467e-02, 1.32434890e-01,
          3.15652221e-01, 2.96965331e-01, 1.00783728e-01, 3.41794312e-01,
          2.68983166e-03, 2.44913682e-01, 1.21665336e-01, 5.21560060e-03,
          4.13747039e-03, 6.32609189e-01, 6.32609189e-01, 3.44177961e-01,
          1.68155457e-05, 0., 1.02421474e-02, 6.97477043e-01,
          6.97477043e-01, 1.38688549e-01, 1.33194251e-03, 1.08331339e-02,
          2.36661155e-02, 8.38775374e-03, 1.77010760e-01, 2.07825825e-02,
          3.88086677e-01, 5.84311903e-01, 5.84311903e-01, 2.58433982e-03,
          8.09183437e-03, 1.16984561e-01, 3.39398354e-01, 2.70903498e-01,
          1.58746392e-01, 1.35556431e-02, 4.83377039e-01, 4.83377039e-01,
          4.83377039e-01, 4.00513768e-01, 1.67969465e-02, 1.86402410e-01,
          2.94466526e-03, 1.43337063e-02, 6.59561204e-03, 6.82990206e-03,
          2.36365438e-01, 6.84030712e-01, 6.84030712e-01, 3.46774124e-02,
          1.37400100e-04 ]
      - [ 6.60272777e-01, 6.60272777e-01, 1.05835618e-02, 0., 0., 0., 0.,
          0., 3.48390490e-01, 6.57825887e-01, 3.57718199e-01,
          6.34674565e-04, 0., 0., 0., 0., 0., 6.57825887e-01,
          6.76833808e-01, 1.52016217e-02, 0., 0., 1.00686038e-02,
          9.88410786e-04, 0., 2.76950717e-01, 6.76833808e-01,
          4.28214729e-01, 0., 0., 0., 1.89335295e-03, 1.85865909e-04,
          1.99144222e-02, 6.36348426e-01, 6.36348426e-01, 5.78270733e-01,
          5.78270733e-01, 4.96765494e-01, 2.76069641e-01, 2.20692474e-02,
          1.13220571e-03, 0., 1.46216678e-03, 4.41684127e-02,
          5.32318532e-01, 5.32318532e-01, 2.23797541e-02, 4.49323803e-02,
          2.49376774e-01, 4.18916643e-01, 1.84647486e-01, 9.60133523e-02,
          3.80059272e-01, 3.71536225e-01, 3.71536225e-01, 3.55107427e-01,
          1.98973715e-01, 3.71536225e-01, 3.71536225e-01, 4.85920645e-02,
          3.71536225e-01, 3.71536225e-01, 3.60059254e-02, 3.46230455e-02,
          5.70667163e-02, 9.45751555e-03, 1.81566402e-02, 1.70032024e-01,
          5.65470695e-01, 5.65470695e-01, 5.65470695e-01, 1.93627611e-01,
          2.08401799e-01, 5.68928421e-01, 5.68928421e-01, 5.15771031e-01,
          2.52270279e-03, 0., 1.50282320e-03, 2.90364446e-03,
          2.22142398e-01, 1.04503334e-01, 1.78955477e-02, 4.86681789e-01,
          4.86681789e-01, 3.36216450e-01, 4.06701088e-01, 2.55074829e-01,
          3.42522919e-01, 4.03011471e-01, 4.03011471e-01, 2.21331820e-01,
          3.28112483e-01, 4.03011471e-01, 4.03011471e-01, 3.14204693e-01,
          8.01528543e-02, 2.90699422e-01, 3.56587907e-03, 5.52133583e-02,
          4.29920293e-02, 3.47106205e-03, 2.42620215e-01, 6.58929110e-01,
          6.58929110e-01, 2.45394662e-01, 3.22742127e-02, 0., 0.,
          5.28159458e-03, 7.04605758e-01, 7.04605758e-01, 0., 0., 0., 0.,
          3.04674022e-02, 2.80666677e-03, 8.52132775e-03, 7.02472329e-01,
          7.02472329e-01, 4.42539416e-02, 0., 0., 5.55508025e-02,
          3.91421653e-02, 8.48422851e-03, 5.67536848e-03, 4.64769214e-01,
          6.18620574e-01, 6.18620574e-01, 1.01007849e-01, 1.08703750e-03,
          2.42942553e-02, 2.33555373e-04, 1.52785191e-03, 0.,
          5.03009767e-04, 5.75673938e-01, 5.75673938e-01, 5.75673938e-01,
          6.89274445e-03, 0. ]
      - [ 6.41155660e-01, 6.41155660e-01, 4.12923247e-01, 0., 0., 0., 0.,
          0., 3.05299051e-02, 5.55428207e-01, 5.55428207e-01,
          1.82070453e-02, 0., 1.53345644e-01, 2.12380692e-01, 0., 0.,
          5.55428207e-01, 5.16863167e-01, 1.28953066e-02, 2.12211683e-02,
          1.35840654e-01, 3.98084551e-01, 1.23654529e-01, 2.37565152e-02,
          5.16863167e-01, 5.16863167e-01, 4.87863980e-02, 0.,
          3.18888873e-02, 9.93815213e-02, 4.95867580e-02, 0.,
          4.93503124e-01, 6.06081903e-01, 6.06081903e-01, 4.79352951e-01,
          6.08953476e-01, 6.08953476e-01, 5.40209524e-02, 1.49982003e-03,
          1.66667327e-02, 1.34248391e-01, 3.56259048e-02, 1.35260320e-03,
          4.07494843e-01, 4.07494843e-01, 1.79226547e-01, 3.75838485e-03,
          3.20973605e-01, 4.07494843e-01, 4.07494843e-01, 3.38412881e-01,
          2.86421657e-01, 3.03559393e-01, 3.55526149e-01, 3.55526149e-01,
          3.55526149e-01, 3.55526149e-01, 3.55526149e-01, 1.39670402e-01,
          3.55526149e-01, 3.55526149e-01, 1.54696601e-02, 2.09947914e-01,
          3.49945486e-01, 1.80925161e-01, 2.51505245e-02, 4.11365703e-02,
          5.94320059e-01, 5.94320059e-01, 2.92907834e-01, 1.67970046e-01,
          4.90406126e-01, 4.90406126e-01, 4.90406126e-01, 4.90406126e-01,
          1.15660124e-03, 5.13753593e-02, 4.74829115e-02, 9.38649900e-05,
          2.86576033e-01, 1.58383563e-01, 1.23262703e-01, 4.41566199e-01,
          4.41566199e-01, 1.27200961e-01, 2.77635247e-01, 4.41566199e-01,
          4.41566199e-01, 4.12181377e-01, 4.12181377e-01, 1.38469666e-01,
          1.87050387e-01, 4.12181377e-01, 4.12181377e-01, 2.93634772e-01,
          7.76646659e-02, 4.12181377e-01, 6.78461716e-02, 2.36092299e-01,
          8.44310895e-02, 1.03216441e-02, 1.19448684e-01, 5.62642038e-01,
          5.62642038e-01, 5.28431475e-01, 1.28088947e-02, 0.,
          1.95220001e-02, 4.71508384e-01, 6.20926440e-01, 6.20926440e-01,
          0., 0., 0., 0., 2.77941693e-02, 1.86441961e-04, 1.39435222e-02,
          7.03870893e-01, 7.03870893e-01, 8.60281289e-03, 0., 0.,
          3.26236077e-02, 4.87986915e-02, 0., 2.18616682e-03,
          4.56944436e-01, 6.23714626e-01, 6.23714626e-01, 3.50195691e-02,
          7.69904291e-04, 5.76336533e-02, 7.32820062e-03, 0.,
          2.30371649e-03, 1.87701602e-02, 5.73902726e-01, 5.73902726e-01,
          5.73902726e-01, 7.58972988e-02, 2.14153342e-03 ]
      - [ 6.08632624e-01, 6.08632624e-01, 4.89151269e-01, 0., 0.,
          9.33741685e-03, 1.08799785e-02, 0., 1.16538286e-01,
          6.58906162e-01, 5.29807508e-01, 1.67289954e-02, 2.81923302e-02,
          2.33333796e-01, 8.00118819e-02, 1.50833922e-02, 1.87968800e-03,
          4.65205699e-01, 5.54908454e-01, 9.55006182e-02, 7.28336163e-05,
          9.17307884e-02, 2.30160147e-01, 1.30518349e-02, 3.07511236e-03,
          5.54908454e-01, 5.54908454e-01, 3.88998315e-02, 0., 0.,
          1.14534376e-02, 1.92584880e-02, 5.36320731e-04, 1.76967740e-01,
          6.92730665e-01, 6.92730665e-01, 2.64946580e-01, 6.17348015e-01,
          6.17348015e-01, 2.90505588e-01, 4.87346109e-03, 7.17767030e-02,
          2.51890332e-01, 9.15354118e-02, 2.37320573e-03, 3.83526206e-01,
          3.83526206e-01, 2.22087070e-01, 2.24678114e-01, 3.83526206e-01,
          3.83526206e-01, 3.83526206e-01, 3.83526206e-01, 1.17522478e-01,
          2.70924181e-01, 2.50939518e-01, 3.43471557e-01, 4.28365678e-01,
          4.28365678e-01, 1.17720194e-01, 9.85859260e-02, 4.28365678e-01,
          4.09034044e-01, 1.72086470e-02, 1.05987765e-01, 2.92122841e-01,
          2.46379480e-01, 4.42077033e-02, 7.14759284e-04, 6.02543414e-01,
          6.02543414e-01, 3.29155892e-01, 2.41917774e-01, 5.45537770e-01,
          5.45537770e-01, 5.45537770e-01, 1.47367492e-01, 2.35991422e-02,
          7.26169571e-02, 1.25084355e-01, 0., 3.28106761e-01,
          3.80644709e-01, 3.80644709e-01, 2.80336916e-01, 3.80644709e-01,
          1.29731625e-01, 2.62053818e-01, 3.80644709e-01, 3.80644709e-01,
          4.32683289e-01, 4.32683289e-01, 2.31700465e-01, 2.68013060e-01,
          1.92549750e-01, 3.47614467e-01, 3.42538267e-01, 1.82410195e-01,
          4.32683289e-01, 1.39075816e-01, 2.18193501e-01, 1.63331613e-01,
          3.56324017e-02, 1.06210401e-02, 5.85654438e-01, 5.85654438e-01,
          4.61487621e-01, 1.37414197e-02, 6.32029548e-02, 4.37298089e-01,
          5.14745712e-01, 5.14745712e-01, 5.14745712e-01, 6.88881055e-02,
          0., 0., 0., 8.85578766e-02, 8.50910544e-02, 1.01477809e-01,
          6.64150178e-01, 6.64150178e-01, 2.39812285e-01, 7.48570217e-03,
          7.03599975e-02, 1.52582139e-01, 1.36190817e-01, 6.81639463e-02,
          7.02495920e-03, 5.37191093e-01, 5.67026734e-01, 5.67026734e-01,
          1.79203093e-01, 1.35312816e-02, 8.47614706e-02, 1.67746004e-02,
          7.24952260e-05, 0., 0., 3.91047865e-01, 6.46832883e-01,
          6.46832883e-01, 5.95164411e-02, 3.82494344e-03 ]
      - [ 6.94997847e-01, 6.94997847e-01, 1.60491168e-01, 0., 0.,
          1.07042829e-03, 1.52584398e-04, 0., 3.54896821e-02,
          5.57772100e-01, 5.57772100e-01, 1.35672903e-02, 2.61441222e-03,
          2.49398295e-02, 3.92186679e-02, 5.86796179e-03, 2.42312923e-01,
          5.57772100e-01, 5.66870928e-01, 8.05040002e-02, 1.28062582e-02,
          9.52579454e-02, 3.33720654e-01, 1.33218408e-01, 6.07628142e-03,
          4.54732209e-01, 5.66870928e-01, 1.20365828e-01, 0.,
          3.27376910e-02, 8.17954466e-02, 1.00862257e-01, 4.22244426e-03,
          1.06011644e-01, 6.89000070e-01, 6.89000070e-01, 2.04312235e-01,
          6.89287901e-01, 6.89287901e-01, 1.46208180e-03, 3.91905289e-03,
          7.48337572e-03, 3.12539972e-02, 9.46525019e-03, 0.,
          3.38804036e-01, 3.91660184e-01, 7.42276087e-02, 1.69018619e-02,
          3.91660184e-01, 3.91660184e-01, 3.91660184e-01, 3.91660184e-01,
          3.29416454e-01, 2.52173394e-01, 2.04793438e-01, 3.98097485e-01,
          3.98097485e-01, 3.98097485e-01, 3.98097485e-01, 2.07455590e-01,
          3.35426271e-01, 3.17830116e-01, 1.70093607e-02, 1.75651118e-01,
          5.15980422e-01, 2.46764481e-01, 9.98874679e-02, 4.97811846e-02,
          5.15980422e-01, 5.15980422e-01, 3.02734822e-01, 9.08651506e-04,
          4.98600632e-01, 4.98600632e-01, 4.98600632e-01, 4.98600632e-01,
          1.16756754e-02, 1.74796544e-02, 1.29302535e-02, 0.,
          6.08765557e-02, 5.61159961e-02, 4.02997851e-01, 4.05497521e-01,
          4.05497521e-01, 2.62186140e-01, 3.16594988e-01, 4.05497521e-01,
          4.05497521e-01, 3.88737589e-01, 3.88737589e-01, 2.92426944e-01,
          6.30905777e-02, 3.70857954e-01, 3.88737589e-01, 1.16199709e-01,
          3.88737589e-01, 3.88737589e-01, 2.66026616e-01, 3.98117691e-01,
          4.21517342e-01, 1.14236772e-02, 3.96388508e-02, 5.00009000e-01,
          5.00009000e-01, 2.92730898e-01, 2.54996847e-02, 0.,
          6.05169907e-02, 5.74629605e-01, 5.74629605e-01, 5.74629605e-01,
          1.45131268e-03, 1.35503287e-04, 0., 0., 7.52555393e-03,
          2.07647905e-02, 4.98264134e-01, 4.98264134e-01, 4.98264134e-01,
          4.98264134e-01, 2.16923785e-04, 7.93092791e-03, 3.74727547e-02,
          1.60033122e-01, 7.25210737e-03, 0., 4.63597864e-01,
          6.04022086e-01, 6.04022086e-01, 4.03543189e-02, 8.95754248e-03,
          1.48286119e-01, 4.98139821e-02, 1.18211508e-02, 0., 0.,
          5.88502467e-01, 5.88502467e-01, 5.46514571e-01, 5.07757766e-03,
          1.13263065e-02 ]
      - [ 6.84497833e-01, 6.84497833e-01, 2.02034071e-01, 0., 0.,
          3.66311632e-02, 3.30838119e-03, 0., 1.17989950e-01,
          5.63685775e-01, 5.63685775e-01, 5.34678809e-03, 5.83706005e-03,
          2.19529092e-01, 2.88203508e-01, 2.85180379e-02, 1.73400968e-01,
          4.43497032e-01, 4.88307446e-01, 1.87341154e-01, 2.94551849e-02,
          3.04285228e-01, 2.67118007e-01, 2.81016558e-01, 3.02349851e-02,
          4.88307446e-01, 4.88307446e-01, 1.69444859e-01, 2.89650243e-02,
          3.29467617e-02, 1.77361131e-01, 3.68779153e-02, 0.,
          3.56875718e-01, 6.33585393e-01, 6.33585393e-01, 4.66889828e-01,
          4.83222812e-01, 4.83222812e-01, 8.22353065e-02, 0.,
          4.24153686e-01, 3.49779993e-01, 3.37237194e-02, 5.16729243e-03,
          4.57393140e-01, 4.57393140e-01, 4.50501554e-02, 1.01743694e-02,
          4.57393140e-01, 4.57393140e-01, 3.66358042e-01, 4.06762585e-02,
          1.43497795e-01, 3.51863235e-01, 3.51863235e-01, 3.51863235e-01,
          3.51863235e-01, 3.51863235e-01, 3.51863235e-01, 7.76059702e-02,
          3.51863235e-01, 3.51863235e-01, 3.08732726e-02, 2.27193534e-01,
          5.18237531e-01, 2.54495829e-01, 2.08201557e-02, 1.73792499e-03,
          5.18237531e-01, 5.18237531e-01, 2.67094284e-01, 1.21788137e-01,
          2.98973173e-01, 4.89640146e-01, 4.89640146e-01, 3.95691879e-02,
          1.65025890e-01, 4.89414334e-01, 2.51233280e-01, 2.82760739e-01,
          3.39144409e-01, 3.39144409e-01, 3.39144409e-01, 3.14926833e-01,
          3.03809226e-01, 3.39144409e-01, 3.39144409e-01, 3.39144409e-01,
          3.39144409e-01, 3.71388733e-01, 3.71388733e-01, 3.71388733e-01,
          3.71388733e-01, 3.18221658e-01, 3.71388733e-01, 2.40312442e-01,
          9.84732956e-02, 3.71388733e-01, 1.41795754e-01, 2.73032308e-01,
          1.88237458e-01, 1.38502168e-02, 7.80222416e-02, 5.75219333e-01,
          5.75219333e-01, 4.32405382e-01, 9.57172737e-02, 7.75133744e-02,
          2.07520679e-01, 5.52785575e-01, 5.52785575e-01, 5.52785575e-01,
          1.51576549e-01, 0., 1.71994008e-02, 7.36194029e-02,
          9.21380520e-02, 1.98349562e-02, 2.73206145e-01, 5.01491010e-01,
          5.01491010e-01, 5.01491010e-01, 1.72801062e-01, 1.16909645e-01,
          3.36836845e-01, 2.45478321e-02, 1.75373498e-02, 4.23004329e-01,
          4.71296549e-01, 5.21231472e-01, 5.21231472e-01, 1.49938166e-01,
          4.30528633e-02, 1.58530146e-01, 1.11196432e-02, 2.71569891e-03,
          1.24895517e-02, 1.66349690e-02, 5.75360239e-01, 5.75360239e-01,
          5.75360239e-01, 2.17097197e-02, 1.00675002e-02 ]
      - [ 6.99043751e-01, 1.25103652e-01, 6.81701954e-03, 0., 0., 0., 0.,
          0., 6.99043751e-01, 6.78913414e-01, 2.67162144e-01, 0., 0., 0.,
          0., 0., 0., 6.78913414e-01, 6.96345747e-01, 7.92075843e-02, 0.,
          0., 0., 0., 0., 1.30307093e-01, 6.96345747e-01, 7.01869667e-01,
          0., 0., 0., 0., 0., 4.02406119e-02, 7.83083737e-02,
          7.01869667e-01, 4.50950623e-01, 4.50950623e-01, 4.03943360e-01,
          4.50950623e-01, 1.37475237e-01, 0., 0., 0., 4.50950623e-01,
          5.61105669e-01, 5.07709682e-01, 0., 7.98710436e-02,
          2.70012796e-01, 2.16784433e-01, 1.50278226e-01, 1.94802940e-01,
          4.84741867e-01, 4.84611273e-01, 3.02931547e-01, 9.23267156e-02,
          2.74662554e-01, 4.84611273e-01, 2.01933846e-01, 3.29137780e-02,
          2.70228654e-01, 4.84611273e-01, 2.54549384e-01, 8.36026669e-02,
          1.27611905e-01, 9.28561240e-02, 4.24832143e-02, 1.55183762e-01,
          5.39146602e-01, 5.39146602e-01, 5.39146602e-01, 2.25775927e-01,
          1.62293926e-01, 4.12940562e-01, 5.79922378e-01, 5.79922378e-01,
          0., 0., 0., 2.71579266e-01, 2.84992009e-01, 6.22020327e-02, 0.,
          6.21634305e-01, 6.21634305e-01, 9.94362608e-02, 1.82974443e-01,
          1.95277989e-01, 2.33119741e-01, 3.46136838e-01, 1.93972394e-01,
          5.86489029e-02, 4.67133671e-01, 4.67133671e-01, 4.67133671e-01,
          2.59970278e-02, 7.78087825e-02, 4.16036963e-01, 5.14291972e-02,
          6.28140941e-02, 9.57663208e-02, 8.62460509e-02, 5.22805810e-01,
          5.22805810e-01, 5.22805810e-01, 3.73194754e-01, 1.11024842e-01,
          0., 0., 0., 7.04615593e-01, 7.04615593e-01, 0., 0., 0., 0., 0.,
          0., 0., 7.03178287e-01, 7.03178287e-01, 6.37281239e-02, 0., 0.,
          0., 0., 0., 0., 5.75688422e-01, 5.75688422e-01, 5.75688422e-01,
          0., 0., 0., 0., 0., 0., 5.96265495e-02, 6.98645592e-01,
          6.98645592e-01, 1.15148559e-01, 0., 0. ]
      - [ 4.88346547e-01, 4.88346547e-01, 3.44743319e-02, 0., 0., 0.,
          4.17451441e-01, 3.22833240e-01, 4.88346547e-01, 5.03844142e-01,
          1.27971813e-01, 0., 0., 0., 0., 5.03844142e-01, 4.65848029e-01,
          5.03844142e-01, 6.57596946e-01, 3.57309014e-01, 0., 0., 0., 0.,
          0., 2.99602728e-02, 6.57596946e-01, 5.75483084e-01,
          2.66666450e-02, 0., 0., 0., 0., 0., 5.75483084e-01,
          5.75483084e-01, 3.81686091e-01, 3.81686091e-01, 3.81686091e-01,
          3.26915771e-01, 6.66467065e-04, 1.23315744e-01, 3.81686091e-01,
          3.81686091e-01, 3.81686091e-01, 4.47386831e-01, 2.19588116e-01,
          2.36914605e-02, 7.86147937e-02, 4.47386831e-01, 4.47386831e-01,
          3.21997195e-01, 1.90442756e-01, 4.47386831e-01, 4.50156987e-01,
          4.10537422e-01, 3.07868961e-02, 1.22715615e-01, 4.50156987e-01,
          4.50156987e-01, 5.77871746e-04, 1.97499562e-02, 4.50156987e-01,
          3.63791138e-01, 3.63791138e-01, 2.49066457e-01, 2.84858435e-01,
          3.63791138e-01, 2.43152350e-01, 3.63791138e-01, 3.63791138e-01,
          3.63791138e-01, 6.69579729e-02, 1.01265542e-01, 5.62971950e-01,
          5.62971950e-01, 1.86691582e-01, 2.77962327e-01, 3.00703794e-01,
          2.43139327e-01, 2.90015697e-01, 3.87629926e-01, 2.19897702e-02,
          9.25107077e-02, 3.87629926e-01, 3.87629926e-01, 3.87629926e-01,
          3.11109543e-01, 3.72842669e-01, 3.87629926e-01, 4.54969496e-01,
          4.54969496e-01, 9.54299793e-03, 5.02096042e-02, 4.54969496e-01,
          4.54969496e-01, 6.31671352e-03, 7.05825863e-03, 4.05912250e-01,
          3.60176742e-01, 4.98104870e-01, 1.09274477e-01, 6.42031133e-02,
          2.93573052e-01, 4.98104870e-01, 4.98104870e-01, 1.32085606e-01,
          3.57471406e-02, 0., 1.48804402e-02, 4.62623835e-01,
          6.17258370e-01, 6.17258370e-01, 0., 0., 9.89508331e-02,
          8.82486627e-02, 1.50530204e-01, 4.55595879e-03, 4.17326093e-02,
          6.28735185e-01, 6.28735185e-01, 1.74201857e-02, 0.,
          1.12119235e-01, 4.07198906e-01, 4.08411950e-01, 1.06906980e-01,
          0., 9.99693945e-02, 6.24882936e-01, 6.24882936e-01,
          1.29712326e-03, 4.55057062e-03, 1.56709939e-01, 7.80210644e-02,
          9.57118124e-02, 0., 0., 6.97267771e-01, 6.97267771e-01,
          7.24464655e-02, 1.39738258e-03, 1.32811423e-02 ]
      - [ 6.76764548e-01, 6.76764548e-01, 1.12401441e-01, 0.,
          5.73708024e-03, 2.49327838e-01, 3.30867618e-02, 0.,
          3.60169597e-02, 4.44939524e-01, 4.44939524e-01, 1.13838621e-04,
          7.22155198e-02, 4.44939524e-01, 4.44939524e-01, 1.87490620e-02,
          1.15339775e-02, 4.44939524e-01, 4.11567658e-01, 4.49622712e-05,
          1.27439527e-02, 4.52894777e-01, 4.52894777e-01, 7.39672408e-02,
          0., 4.52894777e-01, 4.52894777e-01, 6.24587610e-02, 0.,
          1.36972470e-02, 3.59265864e-01, 1.47162899e-02, 0.,
          4.28127833e-02, 6.55076265e-01, 6.55076265e-01, 2.66587198e-01,
          4.80587006e-01, 4.80587006e-01, 0., 2.51781638e-03,
          4.80587006e-01, 4.80587006e-01, 1.38179855e-02, 8.84727389e-03,
          3.71171117e-01, 2.75546879e-01, 7.85254315e-03, 8.85743424e-02,
          4.65882659e-01, 5.00388324e-01, 5.00388324e-01, 1.94320604e-02,
          2.34946534e-01, 1.02055654e-01, 5.18828854e-02, 3.24052542e-01,
          5.68447828e-01, 5.29630184e-01, 1.08682856e-01, 4.73377382e-04,
          3.19621682e-01, 3.98240060e-01, 2.82341633e-02, 1.18179046e-01,
          4.76654977e-01, 4.76654977e-01, 8.66717752e-03, 0.,
          2.67583370e-01, 4.76654977e-01, 4.76654977e-01, 3.30075547e-02,
          4.63073730e-01, 4.63073730e-01, 3.43028575e-01, 8.63868371e-03,
          1.36873007e-01, 4.63073730e-01, 4.63073730e-01, 7.64751993e-03,
          3.51968169e-01, 3.51968169e-01, 3.51968169e-01, 3.51968169e-01,
          3.51968169e-01, 7.36930594e-02, 3.51968169e-01, 3.51968169e-01,
          3.51968169e-01, 5.09214699e-01, 2.87079036e-01, 1.19307838e-01,
          2.92026639e-01, 5.09214699e-01, 7.30472505e-02, 4.96664317e-04,
          1.72485009e-01, 5.09214699e-01, 3.72850627e-01, 3.72850627e-01,
          3.72850627e-01, 1.30963758e-01, 3.67927969e-01, 3.72850627e-01,
          3.72850627e-01, 3.72850627e-01, 9.82183143e-02, 0.,
          3.78471874e-02, 4.55991834e-01, 4.55991834e-01, 4.55991834e-01,
          2.30653197e-01, 3.30287367e-01, 4.55991834e-01, 2.81818397e-03,
          5.09880669e-02, 5.78104258e-02, 1.79684401e-01, 4.71018165e-01,
          4.71018165e-01, 2.45583102e-01, 4.71018165e-01, 4.71018165e-01,
          9.65581760e-02, 2.22568750e-01, 1.61872767e-02, 9.22306033e-04,
          5.78189790e-01, 7.06470311e-01, 1.91175595e-01, 7.29399151e-04,
          3.69411074e-02, 2.68013507e-01, 1.62241966e-01, 6.31544441e-02,
          0., 8.52539241e-02, 6.65967703e-01, 6.65967703e-01,
          2.59484529e-01, 2.76322346e-02, 2.55091209e-02 ]
      - [ 5.46083391e-01, 4.50551093e-01, 4.06641901e-01, 8.24274402e-03,
          6.18247725e-02, 1.60898879e-01, 0., 0., 5.46083391e-01,
          5.52652776e-01, 1.22593254e-01, 2.86692957e-04, 3.77303746e-04,
          4.88026172e-01, 3.61154020e-01, 0., 0., 5.52652776e-01,
          5.14022529e-01, 5.19753573e-03, 4.15955577e-03, 2.78966784e-01,
          5.14022529e-01, 1.26990050e-01, 1.32365236e-02, 3.28695387e-01,
          5.14022529e-01, 3.54324609e-01, 0., 1.18203890e-02,
          3.01611155e-01, 1.36355013e-01, 0., 1.40093073e-01,
          6.07888401e-01, 6.07888401e-01, 3.73732120e-01, 3.21616888e-01,
          3.73732120e-01, 1.27759516e-01, 3.11760396e-01, 3.73732120e-01,
          3.73732120e-01, 2.84487784e-01, 3.73732120e-01, 5.64763606e-01,
          8.64671171e-02, 1.33826595e-03, 1.76123169e-03, 5.64763606e-01,
          5.64763606e-01, 1.05041966e-01, 5.77760041e-02, 1.25033468e-01,
          3.48031312e-01, 1.29850388e-01, 4.75384295e-01, 4.75384295e-01,
          4.75384295e-01, 2.43242443e-01, 1.72015373e-02, 1.59363911e-01,
          3.07301968e-01, 7.69635960e-02, 2.13100269e-01, 4.48629051e-01,
          4.48629051e-01, 1.00252293e-01, 5.32741435e-02, 4.48629051e-01,
          4.48629051e-01, 3.55278701e-01, 2.58909762e-02, 7.97611326e-02,
          5.01438558e-01, 5.01438558e-01, 4.02006023e-02, 9.07965153e-02,
          3.51158798e-01, 5.01438558e-01, 3.16962570e-01, 3.40938151e-01,
          5.77237317e-03, 7.44429529e-02, 2.04039544e-01, 1.55373618e-01,
          7.25420415e-02, 4.16885108e-01, 5.60251236e-01, 5.60251236e-01,
          5.33765912e-01, 5.33765912e-01, 5.33765912e-01, 2.61321533e-02,
          2.07303520e-02, 3.45569938e-01, 7.16065466e-02, 8.87857517e-04,
          1.19548433e-01, 1.42871574e-01, 4.85385746e-01, 4.85385746e-01,
          2.30497215e-02, 8.69553536e-03, 4.85385746e-01, 4.85385746e-01,
          1.78144887e-01, 0., 4.17575240e-02, 2.13534646e-02,
          5.39969802e-01, 5.39969802e-01, 2.07633764e-01, 6.82616723e-04,
          5.45994053e-03, 5.39969802e-01, 2.73063511e-01, 4.41714257e-01,
          6.67325733e-03, 6.83763847e-02, 4.41714257e-01, 4.41714257e-01,
          1.23668298e-01, 4.08510584e-03, 4.41714257e-01, 4.41714257e-01,
          4.70994145e-01, 4.70994145e-01, 3.70449871e-02, 3.81851308e-02,
          4.70994145e-01, 4.70994145e-01, 1.22054994e-01, 4.12970874e-03,
          3.00347775e-01, 1.91214219e-01, 4.27088261e-01, 4.35154736e-02,
          0., 1.34700537e-01, 6.14096820e-01, 6.14096820e-01,
          2.51731239e-02, 0. ]
      - [ 5.62859535e-01, 5.62859535e-01, 5.62859535e-01, 0., 0.,
          2.03707188e-01, 4.94993180e-02, 0., 0., 4.20428604e-01,
          4.20428604e-01, 1.46543264e-01, 1.55089721e-01, 4.20428604e-01,
          4.20428604e-01, 2.57569581e-01, 1.13614164e-02, 4.20428604e-01,
          2.57976711e-01, 1.86996032e-02, 1.06418878e-01, 4.67944682e-01,
          4.45098668e-01, 1.62559256e-01, 1.88797802e-01, 4.67944682e-01,
          4.67944682e-01, 1.48258796e-02, 0., 1.22110076e-01,
          4.06879038e-01, 1.30722458e-02, 0., 2.41164818e-01,
          6.14350617e-01, 6.14350617e-01, 1.68989599e-01, 4.99363333e-01,
          4.99363333e-01, 2.24274501e-01, 3.01648170e-01, 4.99363333e-01,
          2.65229881e-01, 3.61956097e-02, 7.35950023e-02, 1.87503219e-01,
          4.78855997e-01, 2.56473333e-01, 1.23706557e-01, 3.98000926e-01,
          4.78855997e-01, 4.78855997e-01, 1.55918717e-01, 9.13964659e-02,
          8.00352427e-04, 1.01862416e-01, 5.23554325e-01, 5.23554325e-01,
          2.82155186e-01, 9.47881639e-02, 7.63930082e-02, 5.23554325e-01,
          2.60067523e-01, 2.76679941e-03, 7.00787976e-02, 4.77004141e-01,
          4.77004141e-01, 4.36439505e-03, 0., 4.77004141e-01,
          4.77004141e-01, 2.83136100e-01, 2.44743153e-01, 4.53767151e-01,
          4.53767151e-01, 3.20037156e-01, 5.92681356e-02, 2.87354410e-01,
          3.76547247e-01, 3.88691336e-01, 2.05866918e-01, 2.55321383e-01,
          4.14413482e-01, 1.85538039e-01, 1.23872198e-01, 6.71490356e-02,
          4.19702977e-01, 4.19702977e-01, 4.19702977e-01, 4.19702977e-01,
          5.02803028e-01, 5.02803028e-01, 5.02803028e-01, 9.71905217e-02,
          9.07937810e-03, 4.23998654e-01, 1.85976237e-01, 2.85405070e-02,
          1.08815022e-01, 1.73027694e-01, 4.64631230e-01, 3.09915513e-01,
          6.97280988e-02, 6.80951634e-03, 4.64631230e-01, 4.64631230e-01,
          4.64631230e-01, 3.05925012e-02, 1.27477245e-02, 3.35155189e-01,
          5.51832318e-01, 5.51832318e-01, 1.73232898e-01, 2.53335088e-02,
          6.31734356e-02, 4.49521512e-01, 1.90389186e-01, 4.26905453e-01,
          3.92410420e-02, 2.40801334e-01, 4.26905453e-01, 4.26905453e-01,
          1.50478989e-01, 4.82188761e-02, 4.26905453e-01, 4.26905453e-01,
          4.50516909e-01, 4.50516909e-01, 9.04364977e-03, 8.81901607e-02,
          4.50516909e-01, 4.50516909e-01, 3.16588104e-01, 5.53110009e-03,
          2.74809003e-01, 2.14257881e-01, 4.46300715e-01, 7.46033853e-03,
          0., 8.22409838e-02, 6.06776178e-01, 6.06776178e-01,
          7.53452554e-02, 0. ]
      - [ 6.30541384e-01, 6.30541384e-01, 3.71130884e-01, 0., 0.,
          2.06648797e-01, 1.31191894e-01, 7.40076834e-03, 2.88423188e-02,
          5.33912480e-01, 5.33912480e-01, 8.12259689e-03, 1.26697555e-01,
          2.18077004e-01, 5.33912480e-01, 1.85581416e-01, 2.03934987e-03,
          2.03371480e-01, 4.23874766e-01, 8.05686191e-02, 2.50147194e-01,
